{"meta": "pls-regression", "x_weights_": [[-0.005886393303356801, 0.006256419478770804, 0.012594249791802799, 0.027470396281318088], [-0.006186320096535472, 0.03079369146442179, 0.005344502865405267, -0.027689887405624426], [-0.012982033812596274, -0.010643493631748855, -0.012561685270761298, -0.0005116641362430971], [-9.975999421314301e-05, -0.007020871490725107, -0.009565272017645393, 0.010012739557349251], [0.021419947945403743, -0.01519779212966197, 0.017271064931461126, 0.023925957400344228], [-0.006511216490880541, 0.0011854053406711211, 0.014006777631130214, 0.010609860410503253], [-0.0038637178983295215, 0.008413854490517448, -0.009752161698760978, -0.008330408827394475], [0.01770236492536583, -0.0006761691489056219, 0.0027387952272117312, 0.022173786241825134], [0.035554018864455146, -0.01683959211810814, -0.039231726832724745, 0.005749705790894792], [0.023270412514446327, 0.019662716737274034, -0.019275692968584036, -0.007479008134141166], [0.0076795867796524845, -0.006176653258129189, 0.008115200508903164, -0.012264697677688521], [0.004803576870002609, 0.021807120092802886, 0.01905565653091958, -0.019200194281115204], [0.016601454630778254, 0.015286613156526034, -0.01750031599483078, 0.013253118930822334], [-0.010414854527371082, 0.003247877960873087, -0.005511006822141936, 0.009205094691093568], [0.01959157781405661, -0.014404326149817062, 0.012219724626221293, 0.018220711455802403], [0.013791682028826965, -0.004929378598020865, 0.005100330471050068, -0.014600932766317772], [-0.012093048644578573, 0.0006014849300203303, -0.014172349619419707, 0.022940132458536582], [-0.009884037709523336, -0.0194873831252522, -0.010130480882016154, -0.06936052080598429], [-0.0026926351169925143, -0.009762090847864183, -0.009238583239772846, 0.008442115224127566], [-0.003988869388769913, 0.009230089885600626, 0.0028722538648367647, -0.012287333679086413], [-0.01654244740848557, -0.003985472783603522, -0.013257718813201936, 0.0227628665086624], [-0.006647567556305135, -0.006078483031462095, -0.014562621349847808, 0.026414982287131482], [-0.026867596782255643, 0.016839638915975418, 0.005653621398925972, 0.006037272456631395], [-0.017423284497942438, 0.013000402048711338, 0.01587326631736043, -0.020539946840718182], [-0.022670589388409542, 0.00970659249734604, -0.009432564932238024, 0.02762311800228463], [-0.018492119063421963, 0.008624471870117063, 0.001417120743953647, 0.02513581471266704], [0.027474233672397156, -0.017192323041685553, 0.03452266952608902, -0.02175456021732342], [0.0036963552332934906, -0.019926524934731057, -0.018337069583052434, 0.01503766660483829], [0.003270173450728097, -0.007263162462837488, 0.01544942584722215, 0.013019882320124706], [0.01669675904256284, 0.0023207805996778167, 0.03057060501064201, -0.015621065965308526], [-0.0004956180699613233, -0.0009246573645166419, 0.0019581324805127936, -0.0007386223332105673], [-0.036936760600918266, 0.025826656696560115, 0.0013022449766211899, 0.026711942420416718], [-0.010188891078779051, -0.02630964840308031, -0.044768684075377874, -0.050526827371553354], [-0.0006139045127123734, -0.00906321282409113, 0.00774169430557983, -0.005841955453340649], [0.0015563229521227307, -0.0076392311474191375, 0.004204376778873895, 0.027167247482422517], [-0.02100386698311935, 0.005861097535317412, -0.013562668284943112, 0.02951423179773938], [0.0034733894122207067, 0.013541264858382212, 0.005407929450827059, -0.0014736259285656175], [0.008176027384609284, -0.02566625144092229, -0.027351404458408644, 0.018722666627819403], [-0.008965476305894724, 0.0036175182152197996, -0.0007577288762590088, 0.0044171394502371675], [0.014457663997861915, -0.03011363566636948, 0.007912611279135466, -0.013801957804052916], [-0.00169001472141594, -0.02318872491475228, -0.03387962042520951, 0.03321744680534056], [-0.013157087939793026, 0.0008178376198952839, 0.019893973264234567, -0.009633645234846893], [-0.03054498320679736, -0.002573340335964983, -0.028477204649421464, 0.0058199171498326974], [0.049601495136487636, -0.038125296378762316, 0.07572911924947212, 0.054464955644947285], [0.010550494738365666, -0.007532641721550113, 0.017535997146179316, -0.00487762923108776], [0.012024327981247945, -0.00988335019770574, 0.0371977849718802, 0.04235703281180611], [0.04215256878965992, -0.03415130871416861, 0.061263279725027674, -0.0337375976919386], [-0.003187231455775615, 0.008762743308096673, 0.01587071466969333, 0.016759309845844988], [0.005759464608295745, -0.005909391506066214, 0.002920750629993287, -0.003946992421141842], [-0.01960285784421354, 0.002314786886159985, 0.006840239257385454, 0.017542378132729713], [0.011982829671925543, 0.029597804908784033, 0.005333117742094476, -0.02525401482266044], [0.022832740663469415, -0.01910064926352007, -0.031144647854186767, 0.026701975646435824], [-0.014333929377324691, -0.02116498338244895, -0.026129465580166163, -0.0363274281834971], [0.006382652392241392, -0.017174705701481875, -0.006428614456130218, 0.024808495647865858], [-0.010101187066509474, -0.008535727067272339, -0.005292893412009232, 0.04953922087395285], [-0.015450528660861511, 0.020335782089151648, 0.032799237683261005, -0.03982073726445011], [0.023009837640086867, -0.0018103222440434166, 0.002349856954586261, 0.0023753905145907574], [-0.02188954869618237, 0.009377458768872918, -0.0022001021261342083, 0.027166008686493492], [-0.015295126727554158, 0.023968359368345273, 0.028743747512503172, -0.00868446342742086], [-0.0029489241457384663, -0.008538370621027936, -0.014133930647165454, -0.00550336259191856], [0.016126894227532346, -0.04644469610087546, -0.029869298574302084, -0.03739003087255182], [-0.004312772580451749, -0.0008567801677284622, 0.01767611687123839, -0.022863871727459562], [-0.020463739222608184, 0.012891005987684024, 0.011588516178980608, 0.014818954296405376], [0.029579776459101426, -0.01499693398901005, 0.046074222986096834, 0.00786487346549178], [0.01815687084257474, -0.033953065974180775, -0.015312609092407987, -0.02570362764321893], [-0.012264986987686622, -0.008784483278040678, -0.003468962861200752, -0.011949301864545889], [-0.004213072521380389, -0.0036030074688762886, 0.0023867872346428546, -0.016850511879982474], [-0.020949522586089057, 0.017529727880558732, 0.0021591212237971587, 0.02121544217705609], [-0.017986070002331024, -0.013910752266141925, -0.028634838519267063, 0.008868448836334718], [-0.028038363420664417, 0.00817757626306371, 0.0033701238688448923, 0.00833448066156044], [-0.018242337718146973, 0.013757139675634843, 0.013985907248982157, -0.01445256745196869], [-0.0002548462294075659, -0.07668521237579104, 0.00861901074048506, -0.03485589925894274], [-0.020744027211661922, 0.0004229986584365212, -0.02373652333517985, 0.01775427615668411], [-0.009045056728212458, 0.0018499018519193239, 0.011482187120060517, -0.0039158650779936915], [-0.017013355652409086, 0.0035787847960057186, -0.004822727756955011, 0.009127403038810808], [-0.0049935210583333094, -0.023097183911823648, -0.03251095922847576, 0.016246059001313637], [-0.014208632286748724, 0.0005166491413930354, -0.014005963360923007, 0.023395231978620503], [-0.020106393213514498, 0.007476741098069015, -0.014673897013452534, 0.04424693811597055], [-0.007779444475097247, -0.026155645808448865, -0.013551729583239365, 0.002025885042691738], [-0.004268474964276624, 0.017019268399607962, -0.014982714214362581, 0.010364255242162224], [0.027870339240134608, 0.04540123597753507, -0.020913655754484853, 0.003998349258140503], [0.01489153828675525, -0.023276617306378398, 0.017843380345935217, -0.017030253907604275], [-0.000997105897469105, -0.013421063938069454, -0.0026464431625603142, 0.006107535642639805], [0.005854362857989861, -0.01643499073718722, -0.009248687393389193, -0.0032576208023294417], [-0.010049886444000783, 0.012623238666456787, 0.016810386437479577, -0.030870787157318745], [-0.025294040927528533, 0.005262260871632282, -0.014975440948211202, 0.02465239950558122], [0.00882056027177219, -0.01933865949996499, 0.00903877910719784, -0.037295313478395514], [-0.014938431355025853, -0.013889242788151537, -0.026249486629198515, 0.015068437224787685], [-0.005946643034695406, 0.001664262627774129, 0.015982529469326236, -0.028680463504590074], [0.009161689583773574, -0.019828125251607844, -0.010046442004204677, -0.015665391620868746], [0.023340519568020465, 0.03988050559651318, 0.0009275991303200595, -0.01297973344072664], [0.040049638220549445, -0.043785893798092494, 0.050048300400499, 0.011459041426657034], [-0.023235835481537334, 0.011528116379653132, 0.01795742140927037, 0.02685703770646799], [-8.597782923260236e-05, -0.012787695803194814, -0.009168527348095548, -0.018692334683002566], [-0.003847771046464308, -0.027505273143560063, 0.00994529333106949, 0.027226295773663072], [-0.0022903577927326697, -0.009554989799449095, -0.0004813432391747148, 0.00329268234725958], [-0.0012738394524163415, 0.003928095994979962, 0.022793946529212003, -0.017182559752260376], [-0.0018311162977387321, -0.011482194722561706, -0.004192455152646587, -0.006503078283551956], [0.016039229213817834, -0.03406656178167196, -0.02321617217886959, 0.0029903693515678374], [-0.013547989884067902, 0.004858963947592554, 0.0003630887822654495, 0.001991057077876831], [0.021035845380802175, -0.024803418007847203, 0.000449890689009819, -0.0048866238170341145], [0.01687763810014071, 0.03691731782068011, -0.008560907276254378, -0.02155748300338079], [-0.016701964981305016, -0.0169738116240161, -0.000161619531231443, 0.03305893486182132], [-0.013193223900250208, 0.015422597269078353, 0.025854266516233678, -0.0053759625076695615], [-0.008188024858584013, -0.003878010782883142, -0.0058291725003404085, 0.0010767243220724356], [0.013681694864859414, -0.06010042438831913, 0.04281079583879634, 0.004134432597273487], [-0.012110366273186854, -0.012760896908989707, -0.029952187518869137, -0.00403046987495736], [0.07510324829745016, 0.08151099605400304, -0.03457110353033603, -0.040991949726943], [0.02111856976194151, -0.023603200905762897, -0.013107226280635898, -0.025286208110191805], [-0.006439698103916834, -0.006463196366762338, -0.0007874106569232546, 0.00801191125586195], [-0.022716416577783727, 0.025408460056172148, 0.023438002430404174, -0.017265516434066736], [-0.011947006256498867, 0.008833438743817222, 0.00019228342167803, 0.018990196510650682], [0.0010087108029179616, -0.006162345961194608, -0.0006588660031927327, -0.002609462935292956], [-0.0035066071487016223, -0.012411630169367917, 0.017922483845883193, -0.05482492547445574], [0.013482631482481454, -0.008965632783238203, -0.007697575254769109, -0.011827963716209458], [0.028844171650882187, 0.022067137256990502, 0.061339358878401876, 0.04054260976675141], [-0.0066489199419720235, -0.04310467943700413, -0.0419704624496804, -0.03792090131457219], [0.036004205982424695, 0.0051857353009818865, -0.032091849819254135, 0.009183050340526727], [0.018453612399417712, -0.04697153394432269, -0.024527236378658085, -0.03150611292895758], [-0.016693068866750642, -0.0455350086334562, -0.03289664597340317, -0.05605665752304624], [-0.035687321671084876, -0.03729624652106425, 0.029734177187391297, -0.032056317595139563], [-0.02341587299536936, 0.009853012122066672, -0.013191119974511719, 0.002430119502413177], [-0.004333614344144444, -0.021119127153586673, -0.03871590959214441, 0.020676270672610218], [-0.005815120938936483, -0.0044429802984458, -0.014813382983098637, -0.0007204349340578354], [-0.004209364201838216, -0.006149893238437106, -0.0045044331443889595, 0.017699833893918784], [-0.03031951897945757, 0.0188051283334017, 0.005542301764259967, -0.004808591292019857], [0.0180059459531584, -0.003508333192686747, -0.014355848410295408, -0.003559018363327898], [-0.00038102436847910025, 0.005327332630459847, -0.005073339436097102, -0.00396325471195172], [-0.010563527165728823, 0.008247908316258351, 0.011609874664430735, -0.009123664872971548], [-0.005838591631234027, 0.007308771819931597, 0.011862609767153691, -0.036166696941555256], [-0.025197194753272027, 0.025802869700718833, 0.03733261182352424, -0.034689739811368546], [-0.009633085255963876, -0.011291741888574548, -0.005695523827848805, 0.02592281103307587], [0.010725949685493872, -0.0344480085762671, -0.03658575252552846, 0.004940015675631075], [-0.011507127430066395, -0.0033531319870701254, -0.004506052824469327, 0.0024034960406025562], [-0.03708082866819216, 0.01726212412134577, -0.014871274316304785, 0.034748117511376214], [-0.022045493296986934, 0.0032347175329241677, -0.009940125013225512, 0.046365023270224195], [0.0069863039255342, 0.00027142836836477276, -0.016776418427061828, 0.0009601457395997886], [0.0032002387528749054, -0.01445585925508711, -0.008901197460921682, 0.031704809116725394], [0.017578409699408385, -0.03376089065446599, -0.0228679222935731, -0.030039988864573066], [-0.029693236035415134, 0.026417737673467064, 0.0333740406388994, -0.013274723467108328], [-0.02189547145382745, 0.009205345208182286, 0.02426200168905499, -0.033350147762492545], [0.01383087891754249, -0.02218317748382185, -0.011035454489518063, 0.004745721950534763], [0.017876719443324567, 0.04188729206682056, 0.005115945659556334, -0.015758757976053143], [0.01511772213755396, -0.012574969186041502, -0.0038197942821212127, 0.008239867921318025], [-0.015308718792525312, -0.015313448496805526, -0.009443662690672944, 0.003961933542775535], [-0.006414633979466817, -0.028040341053470707, -0.01808524160444565, 0.022424627165027546], [-0.04479964202253377, -0.012645461913979465, -0.04518395222236838, 0.004050652764654119], [-0.013574466619210765, -0.021320998300528457, -0.008781944869908121, 0.017315315833680938], [0.018499628209776436, -0.01603613533151525, -0.01821700129557608, -0.008020437332610653], [0.017053423614512963, -0.036298476004651484, -0.014521993973304306, -0.023216101651208472], [-0.01797751323332141, 0.008719862374433382, 0.012578831668781262, -0.004081618325738718], [-0.009816897697034446, -0.010243943175001047, -0.015113656962026241, -0.010200191552405435], [-0.006072844166623779, -0.0026140035491189887, 1.01322474418277e-06, -0.018267334920030586], [0.000943850370113678, -0.0006477053655425757, 0.021163629178184318, 0.02806008001583687], [0.01823385029632701, -0.025408348726691676, -0.003979561484799895, 0.012714481888925978], [0.043716961790108415, 0.012529867442517384, 0.07068482003673451, 0.06662928233571293], [-0.01998715215658115, 0.022689090402422812, 0.024506359155289426, -0.01496042093300434], [0.01750105449722139, -0.030411286298777603, -0.003452047671750397, -0.024519915110455787], [-0.013299548454933537, -0.020286688791006802, -0.011168403044522957, -0.011513770817998599], [0.021375063802327864, -0.007473355031360696, 0.03754088950196093, 0.006251435707893091], [-0.014875428689200615, -0.004356096361900028, -0.016062172605574992, 0.011519601605939614], [0.006553350479760207, 0.0012653095199951672, -0.002133427961362911, -0.007728621568957427], [0.028455385970185702, -0.015686941370870074, 0.024604039697890177, 0.045735109800757706], [0.012322578147971145, 0.006584595180199568, -0.0017300392642311997, 0.017194796322069956], [0.015500562837343463, 0.02179786236351004, -0.03924566404647416, 0.010663537351828822], [-0.007037367998850183, -0.019589287700455045, -0.015885324645477872, 0.0003423447749810203], [0.0030410059119952656, 0.007337074675038932, 0.03290887003647048, -0.018459102273758844], [0.002199012587820163, -0.0179985274985225, -0.0001411250314551316, -0.009449428919867785], [0.04808055492672155, -0.0798320359514377, -0.04158529940631813, -0.035182089847848284], [0.0007327219910169195, 6.181066554137354e-05, -0.0011494476702681863, 0.004674150221394459], [-0.0003150116416339375, 0.010107680774387584, 0.02726850236876133, -0.01476514664288657], [0.004127567649212873, 0.009824704439265221, -0.006325160790275195, 0.00959267476259044], [0.009758441494138896, 0.0014681250500377407, 0.0004883864123409385, -0.0005871590817197531], [-0.03273796651387613, 0.023399424266051915, 0.0014382868377175381, 0.02228903644268908], [0.040909754612943966, -0.02629825579512368, 0.06266966117877211, 0.011371096204325143], [-0.0019841870949323646, -0.020128380449272266, -0.023238484296142687, -0.004385335141611235], [-0.018955249895290002, -0.01055149202299814, -0.040465979790915776, 0.03394585931199716], [0.00868954245336337, -0.00981253411599715, 0.0034086467764279735, -0.0058101874108671386], [0.0036479095947646025, -0.015774535596457227, 9.434019989391516e-05, -0.009573049761412175], [0.00017786433074109002, -0.0014514222228072641, 0.005372998517943652, 0.0037273102631138486], [0.006876059317429818, -0.0030981908091116967, 0.0007728523559317527, -0.002639248164951591], [-0.007431713347217305, 0.0009764873873900116, -0.0005720022907355605, 0.003041366224629021], [0.008791294480117411, -0.009569205891223804, -0.009225701565524484, -0.012759072993286618], [0.0014549984983245688, 0.0008036531473283447, 0.014199887330548699, -0.002562210558327684], [-0.009939901679338005, -0.002762743981776675, 0.011464493969992794, -0.014192076694682887], [-0.006180542850176684, -0.002054815216790318, -0.01249228153792484, 0.021955457074240823], [-0.0008647908268733061, -0.010033175099847566, 0.002087014916574407, -0.010355116359278533], [-0.0008027160379731762, -0.014439246208416972, -0.01689342806964802, -0.0018945045349011975], [-0.005615917256721403, -0.003473347491626649, -0.0019134617968600716, 0.0311446625626806], [0.00014999733267180083, 0.024630703687172985, -0.01060447144222982, 0.027172887347361445], [0.007088090859124359, 0.0025240910671022044, -0.02354214070831741, 0.020320927920271584], [-0.008955417570627849, 0.005378924971415038, -0.0025428948615015706, 0.012066302768550214], [-0.023604459336146223, 0.027042486111461754, 0.03198739571415379, -0.019109893224191325], [0.0020344035850666776, -0.011700294766929567, 0.004556438574375925, -0.02077935519237569], [-0.014203966622112919, 0.026555815604254088, 0.05043384471545558, -0.007480048603593782], [0.0006208071215947971, -0.013284361277974301, -0.01838083398988995, 0.03149347097494027], [0.02451423458576164, -0.011965201398540872, 0.036638429791514666, 0.0177778559727721], [0.04056512280208928, 0.016301550228311118, -0.04020059419239498, -0.04373060606174446], [0.039257515627882676, -0.02620242469259392, 0.05668085779321032, -0.01659462762541907], [-0.013793319970361099, 0.014149112794503196, 0.01318984215077333, 0.01225790510266743], [-0.012964366970821593, 0.004657478419975123, 0.000520321547784107, 0.005976281267611744], [0.00668781306636822, -0.013915432585156165, 0.008979726517595928, -0.0029363644125384395], [-0.039574146218922475, 0.012547290035393054, 0.0037332356221091174, -0.01869775561354071], [-0.015037184302664262, -0.0028226994570758946, -0.0035153935193525695, 0.0021908447013673695], [-0.026922857956639727, 0.012476665424137808, -0.0019130907103770496, 0.024482586427827392], [0.0034070810303178517, 0.01634243723916162, 0.018349985564942276, -0.01822198141139156], [-0.028346108764447694, -0.06487973697842199, 0.015448521401428569, -0.014857534322896045], [-0.007635715652432522, 0.025008992455808704, 0.0028485066372723987, 0.009148782262600842], [0.03262587035476311, 0.009831565500275715, 0.055219611757677325, 0.04707233035604382], [0.02280501355102956, -0.023072185815730176, 0.016301717117251237, 0.0019240261990754318], [0.001284878194540612, 0.0005093378864527428, 0.00959387320292247, -0.021822127202348437], [-0.0050695103149309565, 0.03868185891876369, 0.01835010406782522, -0.0257004027071902], [-0.007728587532657499, -0.00830506829465742, -0.0018955086915864938, 0.0003407988084803406], [0.008564808086458868, 0.010050677711735559, -0.015371319883362572, 0.012548315842876391], [-0.016183096589331303, -0.009119162019411882, -0.009331218492569284, -0.01152663590407064], [-0.021837785447528422, 0.02344587249826653, 0.028700588364362737, -0.0006395086925755104], [0.04803875973350639, -0.045456876800567037, -0.013628007670685841, 0.019546073094783775], [0.0010984031762509075, 0.012114898281345916, 0.011893922685665874, -0.005990169846427601], [0.039813699265705896, -0.007881115338498765, 0.0384294520958922, -0.011728839178154787], [0.02077752146508082, -0.004010959058039453, -0.020240394667659388, 0.014203379934885718], [0.001691261039774566, -0.021086376572759247, 0.00019667281613516472, -0.04195947262134411], [0.029414798113285436, -0.05439421043493909, -0.0332565987100088, -0.01150062705497687], [0.011340963250281354, 0.012866849967855632, -0.007335306547517872, 0.015684716007893344], [-0.018660738817797715, -0.01598864359954484, -0.027787581693680532, -0.024971543081017022], [-0.018983068850120625, 0.01779303645574439, 0.0160626487080725, 0.015318510419775192], [-0.005762702612823549, 0.004584477587060213, -0.006085310168337619, -0.001383238663807576], [-0.02722486810224871, -0.04077106874760754, 0.028336745526513073, -0.021218458814229235], [-0.0016132874644702161, 0.0046767898908957025, -0.01757883605375538, 0.008549149258085953], [-0.005686991416151334, 0.002651275144876104, 0.008699888960209743, -0.013534264886490253], [-0.008580578494113535, -0.007624122082363554, -0.0061534409867521804, -0.0015010260708042211], [0.009612823260997789, 0.009528168380378605, -0.014705266707072754, -0.020464902765093013], [-0.0008377998994407801, -0.017397411438698017, -0.012394250071569258, -0.0002815586666745258], [-0.010093795001287013, -0.019570486280988963, -0.041620902348650596, -0.02368245107326968], [0.008688628757765637, -0.028541005692403105, 0.016352082861094137, -0.041272252743470884], [-0.01646478244202002, 0.022469506634326626, 0.027600328037934236, -0.027986003247285746], [-0.002924168272585522, -0.03911118011986325, -0.04803556977247382, -0.009219028772715427], [0.0362240178712196, 0.009771448798140861, 0.052746005356364666, 0.04701086283594474], [-0.020117515217151237, 0.012791762868366351, 0.003213504828680242, 0.04129233272278904], [0.04045795566263406, -0.029764349140770544, 0.04148622690103381, -0.0014180316986100669], [-0.0069469881835435305, -0.0023566333319372385, -0.003503299234368402, -0.009231745337781675], [-0.005216811883712839, 0.004862310342016628, 0.026151066161170487, -0.021438743872322065], [0.010779068703535082, -0.01784192969062499, 0.003678024716758215, 0.005554427960264199], [0.000533662291680715, -0.015843347001118654, -0.01786631972698475, 0.013850643977916325], [-0.011434652383226366, 0.005367943299499202, 0.006698060657772637, 0.0004775106284841056], [-0.009231981380681008, -0.0014213271225944721, -0.003966765095022439, 0.006370386749095549], [-0.009476696175455466, 0.006993469944076732, -0.0037610497099457834, 0.016023779635344165], [0.032397601690488595, 0.04652118059510686, -0.017471880240072606, -0.035812710070409925], [-0.01793042854023207, 0.009038906202369747, -0.014961858127899342, 0.031170695950239607], [0.08543055627563154, 0.046398406978463466, -0.054604080562614066, -0.014143050306695673], [-0.015279487771211676, -0.0046796168146538645, -0.004906576909205561, 0.014456064044148448], [-0.00642651733401078, -0.024015712616045494, -0.040643990580182435, 0.0031777126268466515], [0.05293929224195997, -0.009196772240437398, 0.03083319649587722, 0.05377070731501543], [0.002600922665056138, -0.03927879054519587, -0.025136960898841623, -0.016076892491529698], [-0.036646875366489196, 0.021494344895136196, 0.015424289949203545, 0.006904213693491231], [-0.01661239019656182, 0.011965209555762897, -0.006463609454162149, 0.02595920628151245], [-0.004697691251433348, -0.017205496565788656, -0.05305752149770417, -0.017733294056542042], [0.013306270501874244, -0.009498810421197237, -0.01344047975285634, -0.0005727824847032392], [0.010991108619435268, 0.015167220210965076, 0.03973459229429951, -0.01794376177506799], [0.010701917190644658, 0.008505929371247462, -1.5302830493660462e-05, -0.00903034499723812], [-0.041236257476179435, 0.014692853843233407, -0.021202551888540047, 0.03239785902124104], [0.029108876492990352, -0.049067919075423024, 0.0050969631384251155, -0.04283224560007681], [0.0020869975400122105, -0.010131074735053107, 0.0039650116155154685, -0.02693330181304652], [0.017953039706653497, 0.008186055039095806, 0.0051191659809878155, 0.017482876981206465], [0.0011077918315497038, -0.0075590913320719025, 0.00883581257104789, -0.005198955168322413], [-0.003173943452325749, -0.0010905670315748872, -0.014645519215274343, 0.00730564143963373], [0.04600106909011961, 0.03595566841701256, -0.04229328895155157, -0.009464898820822134], [0.022261665068078945, -0.0008085625305185849, -0.00995772714899086, -0.022177832798301853], [0.0027579800206880257, -0.004074308214908195, -0.0013750954553014534, 0.001269202828704029], [0.017077659376484616, -0.032033396798653864, -0.029331974214224114, 0.004903379952545683], [-0.007673067644700467, 0.01096956747713341, 0.0075150417348378755, -0.011056771715074855], [-0.008795733973783372, 0.004061894878327807, 0.0067536220538005065, 0.013025001801195068], [0.007809607654014837, -0.00677464812423171, -0.00808270275910398, 0.0019841564715084906], [-0.004945199462271167, 0.02393133173831815, 0.00748664093351507, -0.030358346877016818], [-0.006045625088809497, -0.008112811007075223, -0.007169763000414222, -0.005225749682473728], [-0.04717354965193979, 0.007813320431358593, -0.041975942532627514, 0.06739587236838371], [-0.018601708913029643, -0.011547102079161702, -0.0022646417951188093, -0.015177469410479545], [-0.0014174003326580878, -0.004324281740645885, -0.011841613089905445, 0.01509189865489409], [-0.012078948643988242, -0.011983617798828427, -0.009826477026953077, -0.01875271845281602], [-0.007401176258274699, 0.013564413462189414, 0.003960567799965273, -0.0043255181622939365], [0.021932198426462695, -0.0105285133748666, 0.020504718316442645, 0.05575895208013115], [0.011584739542216428, -0.00508940022415189, 0.0004241811496739684, 0.01741067506993746], [0.0394889122878084, -0.017355618664303043, 0.05240688702711015, 0.06561931339787891], [-0.00523992210582805, -0.0007222180306639789, 0.0014471422505610782, -0.0036967355466951345], [0.003796253321636735, 0.03473631237860937, 0.002936123268587222, -0.005059843774957548], [-0.01401456709780473, 0.0054008016832957344, 0.006003285563415328, 0.005491453910852658], [-0.008163563806630508, 0.00513899333874716, -0.009250570376778823, 0.019785849503616726], [-0.003962715618183945, -0.014309885350945656, -0.02721035752555489, -0.0012345630165195565], [-0.006048654674736005, -0.00643485442656189, -0.008369317756854993, 0.008081027836596328], [0.004306047066836977, -0.020435055494565244, -0.015655449604826482, 0.021850812384585073], [-0.005403399725784384, -0.01572869963483475, 0.004670591041753491, 0.022443394436438585], [0.036074938768597985, -0.04726782348915691, -0.01406936758243599, -0.04508553353015091], [-0.01799790518942326, 0.014048732133054985, 0.011521710611549742, -0.00944929669600668], [0.00017009695610105955, -0.006344298485473204, 0.03989686894744389, -0.011986693268790628], [-0.0018000023954246665, 0.0002683480014448073, -0.004805862840239767, 0.008212576024714344], [-0.025981875872985793, -0.014750467205467264, -0.006824900558623069, 0.035209678253633546], [-0.011032242130856608, -0.03758819670350322, -0.04467793536669911, -0.026388236158806287], [0.025526646836074102, -0.03300727823252402, -0.009601067306159906, -0.025028402536605994], [-0.006181300580200445, 0.00031215328571412957, -0.0052664468756404076, 0.05214176148176522], [0.012223296758897542, 0.0005797347801661781, -0.01912598199312735, 0.013463609734134125], [-0.01599218692938273, -0.004255264068499411, 0.01390854219513005, -0.06911895237427565], [-0.031779474142662356, 0.0018962880101899998, -0.03655475453988118, 0.049725950572878604], [-0.005121866285321983, -0.008675878166963219, -0.002498743332512903, -0.01718729004959611], [-0.013336460620490974, -0.032041364471472156, -0.02676032391097885, -0.02735645835390457], [0.007383652086655515, 0.008362340386638047, -0.004731784356764134, 0.00843772308790523], [-0.003815994476938954, 0.02295420676002229, 0.029759212591355222, -0.014974380491912222], [0.01559565858203954, -0.013946309580249455, 0.039404196661437615, 0.012789276194991093], [-0.0004769045971412415, 0.005658441636325159, 0.020520444705655755, 0.023635620877440713], [0.006843251935686094, 0.010948228283281118, -0.007921285931160633, 0.010821387626388387], [-0.00395781574116596, -0.0017551046605889511, 0.00996110394032658, -0.020329894601177557], [0.007079886852222994, -0.004018772839507012, -0.0021285292934390436, -0.013178755385934899], [-0.016231849468536775, -0.03176628524620097, -0.03470108962279783, -0.012755721162345825], [0.08798212764336057, 0.09027076979709721, -0.05492998694084782, -0.028905368069415075], [-0.001805864521410693, 0.013023902060075134, 0.0002965555778885847, 0.004872999536081111], [0.017434048620959045, -0.027164888014951774, -0.01922274670533015, -0.011850792828558433], [-0.010709916315472552, -0.042241290818886265, -0.010724368716513647, 0.013063131559681697], [0.01373891237470625, -0.016090295057638395, -3.928007305716628e-06, -0.008560938711607043], [0.009217574559950313, -0.0033983665666349762, -0.0007261867870163039, -0.02489173333298287], [0.026028103727240456, 0.012598849973257754, -0.008296772325067174, -0.014998034925867773], [0.062106192078243305, -0.018627605056950887, 0.031240522318432582, 0.08242604959981964], [0.03384593492982566, -0.016753332862977983, 0.0611815140429694, 0.03926352192392517], [-0.004669690187958832, -0.006799594149589883, -0.010341179253081133, 0.02444468898070763], [0.013505407328742109, -0.009657327544987004, -0.009357462466682625, -0.00348392955535003], [-0.005110065171509089, -0.027053926593762198, 0.013726533682377263, -0.06698110403913847], [0.08563496844156494, 0.07696530196741902, -0.0440360617833165, -0.010844761518343191], [0.0017525659711168462, 0.0036823207143173004, 0.017518707163886028, -0.0066970904990847294], [-0.013492208828857738, 0.02473914164010843, 0.0302594394622165, -0.0383786228227313], [-0.014748519928915247, -0.0034097514017700776, -0.011621865429564572, 0.02999217640133493], [0.0018807055301216058, -0.003415397989217428, 0.02774823013163758, 0.012650083789814687], [0.0018166107473587697, -0.034255581678848644, 0.005939752224254908, -0.05327262253049174], [-0.03857868799640682, 0.0009860151856446078, -0.00692574480913944, -0.035530149959883184], [-0.025544180996165865, 0.006075238827870952, -0.014486024311152002, 0.04311914326210762], [-0.00739581220781287, -0.01874439514164498, 0.003803863134606103, 0.0013303910459593075], [0.00419640691160724, -0.0034888147602310407, 0.013702141938044738, 0.0038576157832021386], [-0.029094918360127477, 0.025054312092397713, 0.02111956029883443, -0.003507212728021062], [-0.010602249932430417, -0.007794297159782319, -0.02097455225937673, 0.015965769870622128], [0.006730347208364976, -0.005399698846325853, -0.00029821188253156323, 0.00037358671865883575], [-0.022968333689541594, 0.011745962248078572, 0.018844624769221434, -0.011629550997077484], [0.0024604471975370216, -0.015101096709143991, -0.004473489771821057, 0.007620536404298886], [0.03870217375447227, 0.001478508505469652, -0.017280942625983335, -0.019106669059531553], [0.013566134155035159, -0.013241385500837855, 0.02696561112359407, 0.010991825136901666], [0.007393253459795038, -0.01939066768063817, -0.019031564671331113, 0.0023132814829369343], [0.011240443247573817, -0.029882982532443595, -0.011050123998630694, -0.0249211015977632], [0.009182227221470088, 0.012371702561486548, 0.055748397216322396, 0.05896905359456512], [-0.0007086641178089359, -0.0060948727167619374, 0.017835596156448155, -0.031137511516843668], [0.0006861745565078236, 0.02951449897113748, -0.013407053687353992, 0.02665328445744253], [-0.024488163313910793, -0.05379314878974855, 0.018302556332232798, -0.019635249090989067], [0.014319898300262007, -0.021458009717254874, -0.03366676548226858, 0.03341827238912247], [-0.001597792396105567, 0.007096601962411813, 0.0089191732417841, -0.01440354920374783], [-0.011339737736811933, -0.008121757644593998, -0.015060135967788706, 0.022705079994156264], [0.05279046460054161, -0.0552119582024361, 0.017765269996670816, -0.01594279258861519], [-0.01116518384292011, 0.0109664168932971, 0.03289251839768753, 0.0242710383286628], [-0.006145244135756284, -0.007839472899488963, -0.010679502159169104, 0.026248884766685025], [0.0546112372355407, -0.04969412270441193, 0.07899947252590972, 0.07376139741503468], [-0.009082773226317519, -0.0006945153100708373, -0.01106278544966613, 0.014512476351495279], [-0.006413720176123155, 0.021031875682305644, -0.010537070317787379, 0.0042454721024739114], [0.019494363373047604, 0.003627616247157342, -0.01056397825621179, -0.03033600446627324], [0.009997867937694352, -0.0054940700381352495, -0.008098974617823695, 0.0032395668083435845], [-0.005395917377235068, -0.013875305218260919, 0.004431444325825175, -0.011537608113482128], [0.0022982944682600763, -0.0015120371949239968, -0.0058567780049819124, 0.016320681682973036], [-0.028565476536070084, -0.049870753084689044, 0.02982835789663818, -0.014770451670398404], [-0.004347653153959509, -0.004237214439897773, -0.010517812021297106, 0.000777496692112221], [0.07816788098124094, 0.048537419597796914, -0.03159007676621395, -0.022378498664056314], [-0.01018341819250953, -0.017797338082637996, -0.028247271313478095, 0.010075427878934179], [0.009859311931824577, -0.012696496744044399, 0.010883539329574657, -0.04009243998239072], [-0.003043361205329462, 0.005866740874420624, 0.04831887077070853, -0.04639795431575815], [-0.021641463050242216, -0.0010900886284338103, -0.00766106393075141, -0.0015902006860101263], [-0.051428365108647636, -0.004758047051068976, -0.03253248914247983, 0.006212697088361998], [0.01689007096100438, -0.02585066545692222, -0.016794554745691068, 0.006738829349265219], [-0.013626534928903353, -0.014304381316423505, -0.016244811267105228, -0.014461847373313071], [-0.025595060214371003, 0.0006948785329365513, -0.033427512461210736, 0.026491072357641903], [0.006084173904030811, -0.00462644641901017, 0.020768207190151166, -0.018055957969859947], [-0.019472462633647252, -0.013265062228627245, -0.020327189128121807, 0.0024238465899123376], [-0.0029767353615375684, -0.0033072155327184233, -0.019256479578787577, 0.02924644551230644], [-0.004391620889772258, -0.006422151672399225, -0.01527063795948404, -0.008184963834027077], [-0.0022077813819278386, 0.0034811542132223614, 0.017154656341048676, -0.02059495411909593], [0.0063067382786381404, 0.03672998411628302, 0.016232478869362393, -0.016081399826277813], [0.023802435161495248, -0.02147673091304821, 0.04205617550611553, 0.014083973096282404], [-0.025850731593504803, 0.026869909901989803, 0.03155065863216521, -0.018365713555689587], [0.12149308478322986, -0.047071017457635825, -0.00713884721863826, 0.029526047899069884], [-0.04111826094756489, -0.017983615652177563, -0.04686696610128445, -0.005244341481970356], [0.02612367048060848, 0.0055289616320258715, 0.0002658066960225089, 0.013012603751564017], [-0.025242039601258134, 0.01747212973136369, 0.025119256500741455, -0.03663984407847838], [-0.033135971387095925, -0.04999721017804298, 0.03051614338009407, -0.020298974968017594], [0.006950312653945854, -0.01220880755123819, -0.011203869304389122, 0.026919001274334917], [0.01955991014616095, 0.021098523955103757, -0.013621045673142939, -0.006352771655361576], [0.0017659542556509578, -0.0198835101816335, -0.03282483941306129, 0.027631762817283308], [-0.017034163849588543, 0.017876934950873582, 0.026093715695054573, -0.001610951493813227], [0.047238822315078845, 0.04397219505415062, -0.023254639288558275, -0.006417200441686247], [0.022446091162417508, -0.03451946045200906, 0.008077191794619862, -0.011188592398251226], [-0.011905896715810379, 0.07247552300102243, -0.015871537842801955, 0.004166971360154575], [0.0010763733778009464, -0.012223537103824697, -0.009142222795133811, -0.013232020061815713], [-0.009079824656246882, 0.011653029494257798, 0.020069153053357255, -0.017649441863281982], [0.015038594587144365, -0.014745709765661459, 0.009964049933824793, -0.00827448366408258], [0.005911180085728752, -0.03145676653901206, -0.04245087895445095, 0.001801241446886363], [-0.022439853417540626, -0.011239808293581587, -0.020232417866342927, -0.01927874673369425], [0.008802135487175284, -0.015800013255850738, 0.004659420853741175, -0.03169066093420921], [0.0392881990788238, 0.03354932953932265, -0.008964681148810634, 0.006092910235345395], [0.059954787959531894, 0.07096812047515838, -0.04403969056830564, -0.0029164294199039405], [-0.01560916721841427, -0.008216006802929656, -0.010149523604454173, 0.0042768215849744015], [0.014423364856417747, 0.015688151904745252, 0.014238891386748538, 0.012995247639918953], [0.006394970765069763, -0.01117501423107468, -0.01776058008928473, 0.02469637409970167], [0.049222901283792315, -0.004226552097375049, 0.01447577578493439, 0.056489345177516546], [0.0022740612671779707, -0.008763289691404889, -0.017889558935156903, 0.03096931651562443], [-0.00014166375207945453, -0.02580390585732922, 0.02591205008705794, -0.008263670164880775], [0.012252094016341957, -0.022768207369394285, -0.00822129352920728, -0.0061214650647462504], [0.07673371772476016, -0.031160425061350184, 0.06542184394096016, 0.06052709679001917], [-0.008131064415543047, 0.0040846726392121625, 0.04539206081643748, 0.012816947527291369], [-0.019111149198573974, 0.008447735703013467, 0.011194390951288099, -0.008887827059799692], [0.002688562861300879, -0.013591380696161073, -0.010589068259533927, 0.011800255277643848], [0.006276725411798409, 0.022191714993779435, 0.011982785317088445, 0.005151111202845182], [-0.012007434084906406, 0.00826526907120496, 0.011889669027246395, -0.0006144127190567783], [-0.04185652241540524, 0.023251074189483405, -0.0021315422309104693, 0.025262155839088096], [0.04498811362620683, -0.0036533359280341167, 0.026817844825448425, 0.05466505922870652], [-0.012152769189640098, 0.005215027158130345, -0.01086942503812817, 0.0003223994438973011], [0.015106783397077368, -0.03322621420522115, -0.007547534428027653, -0.0358184498543198], [0.01978216864386174, -0.00976842151526741, 0.014163554148733059, 0.013058012020413826], [-0.02084781775983071, 0.0015948612489405894, -0.01978785734219986, 0.06364688960759401], [-0.008269467222047971, -0.004436732033535527, -0.017230843978128588, 0.017988771698299554], [0.005361537397255827, -0.007111674575819524, 0.023416975611850965, 0.015803815775684404], [0.00640098989774062, -0.013450339049080258, -0.014051817007227265, 0.008661402973748606], [-0.006693861428239071, -0.019834876568580087, -0.0026641324975149403, -0.010337798854369811], [-0.000936396182112079, -0.00501224668872307, -0.007236052024336153, 0.006660417473902375], [-0.011555817124318668, 0.019405333464753705, 0.017409054695251645, -0.01217162734808296], [-0.008793845223578711, 0.008801451458370278, 0.0012513463726177162, -0.0032964601580243408], [-0.02307715073308207, 0.021944379273882465, 0.012639122281338733, 0.0012186545366916872], [-0.026692352189847626, 0.008756866336291604, -0.024319306432955823, 0.05836012042084035], [0.08581902174701825, 0.07496701404465947, -0.05422333086157476, -0.03005717675845102], [-0.02328172268147624, 0.003802300409043066, -0.003166456251181074, 0.0048397701522344076], [0.009247554419365783, 0.03295804729235652, 0.015951987632868113, -0.01518499010956649], [0.009408013485769036, -0.024892761562896038, -0.046349475259795776, 0.054373997577186965], [-0.0209741197819538, -0.022212904676514912, -0.03723825576282767, 0.02469311903670297], [-0.009811567450297501, -0.005301849949069917, 0.011972042392846629, -0.009710327162511924], [-0.02706635215940693, -0.0015295603434497093, -0.03595753584569644, 0.036808719744423735], [0.0202136319563337, 0.014445232641017361, 0.031963895709609835, -0.011263824710362526], [0.020015189938172945, -0.00029826788811175505, -0.00606680307916153, 0.022354673995778923], [-0.008074456198627806, 0.0104285917096319, 0.024340398846950814, -0.03350725681731619], [-0.008576733967732255, -0.010126449835234828, -0.034237085549330866, 0.044227155163470644], [-0.01488707281335233, -0.04047694957978867, 0.02871708435247068, -0.007535882566433633], [0.006781341108862146, -0.02496223661723717, -0.007519001677987826, 0.009159184793676436], [-0.0018998361656841648, 0.01428144963222987, -0.008070102311952126, -0.004554018473801662], [-0.01946425625403029, 0.008855106349958166, 0.005423406974963212, 0.00758180309421536], [-0.05162832599797252, 0.02499435892465913, -0.013495883486351112, 0.04888448880418457], [0.010167907596821816, 0.038396006925244225, 0.0027011357927932307, -0.018361708317579384], [-0.04783496682003949, 0.022192589658024137, -0.025192932796233015, 0.048391943980155595], [-0.011752512197503819, -0.0018870957447540406, 0.004001564878502785, -0.0033888498046757316], [0.02401325525018973, -0.02184345188526613, -0.015143553842620542, -0.005544231797668167], [0.017105504178886437, -0.007565809501409313, 0.0420374745540319, -0.020215153182180586], [0.007819969480322094, -0.01508356728214454, -0.0067706819882848044, 0.014053851609755662], [0.027593113822684145, -0.02184224443035688, -0.005765504397941196, -0.0024416308925841747], [0.013777080819308814, -0.008454499077911877, -0.015841180164801287, 0.007131557195848001], [0.007431696999081676, 0.0031414968283308546, 0.014856418771202595, 0.0078062851977260435], [0.051183939993677124, -0.013794580749990817, 0.06052614059084398, 0.08880969039319393], [-0.007524940668420139, -0.003703357829505636, -0.010201581891142838, -0.00017377291355033248], [0.003822978848189529, -0.020430953692354648, -0.019483148892608833, 0.01789186510443298], [-0.016627453816153395, 0.006944975776968409, 0.012191019756673015, -0.002097993918153581], [0.017079819217432655, -0.024833101041227552, -0.012822959983174287, -0.016602891125356723], [-0.051373683242497595, 0.05891111406550037, 0.05588855660624302, -0.030913093721943376], [-0.010548529017029216, -0.008841875499918854, -0.015070858498068196, 0.006088621593502029], [0.0018306396684968649, -0.011698057334053429, 0.026803160949452037, -0.0218182047116003], [-0.01662539370201349, 0.0032741634607776197, -0.0004924078244405457, 0.007779109297719797], [0.00351780388890243, -0.0011535755520246374, 0.005311147991318115, 0.0175336282645482], [0.09177784476464361, 0.06515610573398031, -0.06423194260831769, -0.0043532707683898615], [-0.0001939278371771386, -0.0030707812723856083, -0.0004516129972608831, 0.007249765161864438], [0.005551166580333945, -0.010136052803210076, -0.004875740117492738, -0.00038324275929373135], [-0.054843101122736014, 0.022110831997536107, 0.012039874970229533, 0.03087729124781045], [-0.00276995058581978, 0.002703010893311245, 0.0015997686555191903, -0.014354451337915283], [-0.008750393756074592, -0.008967463046124497, -0.012349760778168262, 0.015369883768335098], [0.010913710296687501, -0.032419151930965014, -0.022610818737519453, 0.02512226357132039], [-0.009723121419296137, -0.00019978720320846342, -0.01490105906519092, 0.014541602225767161], [-0.0009665732419740861, 0.022674052839730733, -0.0003942791769366891, 0.004595398446272782], [-0.012292990459089395, 0.019593365891736846, -0.0021240107255058797, 0.008754584056202332], [0.05538414549393903, 0.08675173605476531, -0.04897898280816518, 0.00020841438208810684], [-0.013176003232219045, -0.0015174197446240299, -0.014266968305667494, 0.007364972820899694], [0.00974917722902005, -0.01027708592938726, -0.005146008700942266, -0.0345345979652929], [-0.016404942195582715, -0.025295966514772613, -0.03457100742147507, 0.015797004471583456], [-0.014419695742456072, -0.021680459521206657, -0.008997971954260461, -0.03619200431598919], [-0.011392994643902653, -0.013806616297465343, -0.02060128156651337, -0.002275537373890807], [-0.030619926188673735, 0.000851452767084328, -0.027607044466091725, 0.008124116247613434], [-0.011395487765720861, 0.017697906141956408, 0.008897531230116515, -0.00689945368569672], [0.011241632361882832, -0.015433884251604819, -0.017081046340882578, 0.010772321520426342], [-0.010665577986090403, -0.030468526661410297, -0.016717363939818517, -0.06231545017588215], [0.014701919037364038, 0.008562183383445556, 0.002463782025158559, 0.019382562570691923], [0.022910660724904514, 0.016981272202088064, -0.01762694657346972, -0.0005684600527087231], [0.0033468122615355855, -0.027301481746011557, -0.023825645778392857, 0.0008585610002295537], [-0.012209734718229587, 0.008655347671226884, 0.004231362841236966, -0.019242086575933005], [0.02205244947914482, 0.007673681175830644, 0.04684246830632829, 0.05472625268119361], [0.0784079946750964, 0.052650075150082264, -0.04279053077399617, -0.04217159451365445], [-0.004247553432375823, -0.011945731135264353, -0.015847771611247397, -0.0013605067223426393], [-0.03290483337935303, 0.02474152355764405, 0.0088432975332224, 0.012814699984397259], [0.044458772855790925, -0.0048114473557548595, 0.07083560447058909, 0.04645332562503437], [0.029452833254895033, -0.034438387394846705, -0.0009687156058462293, 0.014149447988551058], [0.0001102365158946228, -0.003609639313232875, -0.012367177570853061, 0.018494259633905073], [0.009815533463710563, -0.019364549465558992, 0.007811022229341574, -0.0032124199367082606], [0.017714849783326696, -0.0226841267508005, -0.022427914086692546, 0.014895186536988408], [-0.03604867301427808, -0.03780387744188093, 0.02099554921712605, -0.007005767717341832], [-0.011518679397912006, 0.004738887780572704, -0.004941251537439408, 0.0197281762099883], [-0.008963721716291223, -0.014126674267717375, 0.0020975579468180527, -0.0242866134501084], [0.007659228068653326, 0.03405242283392579, 0.014658186184809997, -0.0037808726119624918], [0.02748672188584135, 0.06001247747275939, -0.032149680534793855, 0.029544662632133834], [0.004991082534222502, -0.014313681352535742, 0.004036576290893549, -0.013257682311675179], [-0.007936265595935039, 0.00826283889812848, 0.02067476328270205, -0.024724058943801093], [-0.0014462543546624488, 0.009453325122992113, -0.010067867247490224, -0.00741574861156787], [-0.0051422595130285334, -0.020914568272197186, -0.029235034921359666, 0.021549912296137678], [-0.015662844505409123, 0.0027836119481790835, 0.0008777414554338134, 0.013451727673016275], [0.0064182951711895435, -0.019904510154865315, 5.732493812725718e-05, 0.021698459375980538], [-0.012886339430110789, 0.005014976470513729, 0.00440719942918613, 0.02034889230458061], [0.004394172855350207, -0.009217138037130776, -0.006052126567996773, 0.016502229787985573], [-0.004205851826614051, 0.01124906818079352, 0.018610746057352644, -0.00682624364639333], [0.0035771505769777974, -0.0013400287295856194, 0.0074538308409785965, -0.010686889389687792], [-0.0020610485783175555, 0.006380072178641312, 0.010427105225156563, 0.007047373858848581], [-0.005134220585640704, 0.010242204361846498, 0.006611737386450454, -0.009589432001286332], [-0.03225566169692151, 0.008844857855617111, -0.023449575671451485, 0.014370502698502092], [-0.02194170845073544, -0.023529890044364662, -0.04648856445561707, -0.004434569364494661], [-0.0009069547754048003, -0.024080032078659195, -0.025009308976584498, 0.026688581004843927], [-0.0071558172301918205, -0.027464373616938466, -0.049883412605193675, 0.008920856727365306], [-0.008846983958892852, -0.011323795713077402, -0.005734652952025567, 0.0037599993906109385], [-0.0041927341834697195, -0.004516793565569372, -0.013271951908385503, 0.023306292075040903], [-0.003862352095214523, 0.001375361250337459, -0.0011156982100297783, 0.02758218027025879], [0.011986617587178295, -0.008265685136128936, 0.01973512877266591, 0.012319330272777632], [-0.018181956280444014, -0.0635069883119146, 0.011198323910735063, -0.0020883398801370516], [-0.015026497560157746, 0.004756480073559018, 0.01793375560223997, -0.021196407982831712], [-0.021049017672346508, 0.02133490848002292, 0.016952974906931487, -0.0020965607776296164], [-0.03850077170753382, -0.05543041289734542, 0.02599323808654921, -0.03189233998631078], [0.029600501138272152, 0.03310708725957027, -0.013870225187225665, -0.016396990926903197], [-0.02026121731560125, -0.011698585021005114, -0.03383180890427548, 0.01176249334783037], [0.014683145977516009, -0.01579586988727247, 0.008868054355801028, 0.013704309027634322], [-0.031649633553239395, 0.02762656307314508, 0.027501171742202762, -0.009342832124028522], [0.003300751619557832, -0.007595469120627243, -0.003775852491051816, 0.02368346957747374], [-0.013945937623966669, -0.031169179660445294, -0.028318035002405546, 0.012833445751021078], [-0.013287501098229165, -0.01055462946719476, 0.0009357026796732736, -0.005807915284897279], [0.013500727885870265, -0.0005912707932242958, 0.04174256498378287, 0.0037414089319539367], [0.013084813773038205, 2.899119785919348e-05, -0.0006076847649068831, -0.01240992180522427], [0.05505267134145531, -0.002247389848163249, 0.053756947844296174, 0.08891235175079103], [-0.014779715971868678, 0.004101274386318121, 0.005846313044704833, -0.002065156924914915], [-0.0071208974744532754, -0.0018799679244379539, -0.0028458003553705393, -0.016164330754916006], [-0.007030049759181116, 0.016129780487139405, 0.025025582746968398, -0.011084467531371017], [-0.009131542670755218, -0.0017931368503680918, -0.0027264959025891603, 0.022880118532276963], [0.009663402272953647, 0.030503618930511716, 0.011680476115553631, -0.017517171284699665], [0.005679030129718355, -0.0036964897218679815, -0.004253459835516606, 0.020794417387527405], [-0.006441120534613723, -0.006151007067022371, -0.009590181960824019, -0.01497693632714486], [0.004511529312905302, -0.004042648455787169, -0.0015815794798334152, -0.0003383194333707958], [0.006442937533585226, 0.003245274723269065, -0.011464466058194789, 0.002507487657625859], [0.0006725404543307582, -0.009101403781387647, -0.012489745885107513, 0.02640707461048884], [0.00726583366256941, -0.02753800274830281, -0.0161911466572989, -0.004899753794215395], [-0.005033215182501949, -0.0038237346320893497, 0.00916779845467996, 0.00874634109228838], [-0.032512890130656225, 0.013978322999832198, 0.00291547891950306, -0.0023567308022120204], [0.024063468129069798, -0.011740021234751808, 0.036781974912487976, 0.0010083315124783398], [0.0034871043689804603, -0.01325099316755803, -0.0050100354821715895, -0.00437273486002874], [-0.00739257932156305, 0.0021490165655242894, 0.012784914222937893, -0.008671074621857662], [0.012701546906961046, -0.01740060354990086, -0.008889344868506233, 0.0014496118509173064], [-0.009015274579155552, -0.008051911680045836, -0.0225360483071998, 0.02047142296739004], [0.00010482889350940113, -0.0076136673551372765, 0.003973817876089332, -0.012431461563028452], [0.010209675293523636, 0.002778702196279308, 0.030258435214779004, -0.0007254815560016717], [0.007882486874658767, -0.0003735697370112223, 0.020761094028516218, 0.02827012090265396], [0.01066803402653584, -0.024335999988748504, -0.009846320959911867, -0.0014944860524704793], [-0.009115971387325148, 0.003264292409354936, 0.00021897296368195848, -0.008096230346543516], [0.011188515979774494, -0.014686374647388293, 0.01971802762075919, -0.002099800158129347], [-0.0003680162722895208, -0.005633833312065824, -0.0034053020405408916, -0.016898340145830755], [0.009851592829722587, -0.058822650242601485, 0.010305665069835284, -0.015538875936968418], [-0.03176072744359797, -0.056974329004747255, 0.03203318473854104, -0.03409339175191854], [0.028903759811372637, -0.006955042398964116, 0.05912012023823989, 0.003235427206863898], [-0.01400210179705475, -0.03068181460281523, -0.05879220198348494, 0.017461229544268722], [-0.03263647165017199, -0.049148018582536375, 0.018484988162256313, -0.0219523353354098], [-0.007166164773064494, 0.020550757849086648, 0.01888665744765299, -0.007776492834571521], [0.016186994085279384, -0.028593389191764518, 0.05370503569187414, 0.028630474036957322], [-0.001133725119250064, -0.0038068986201510095, 0.016708010466820182, 0.014838180269412275], [0.01591530282427499, -0.02527460229757222, -0.008691501014571076, -0.005563318779439801], [-0.010695332314638935, 0.009854975667711706, 0.009554125312431192, 6.576214708521801e-05], [-0.0036105438372866527, 0.00016074038720017658, -0.009905711912323463, -0.010080114487875446], [0.012786883334073027, -0.01770429231300097, 0.0032260736677599128, 0.03323271172524884], [-0.007570199610726613, -0.004156025354649739, 0.006171266914393741, -0.009615216998888306], [0.01308704851581157, -0.011977518540565044, 0.011997445617938814, 0.015873632002020646], [0.0031420344985007118, -0.0181892511666444, -0.015479214543704317, 0.019011855662766978], [0.003695174537020558, -0.03535719450643379, -0.031934840438537844, 0.026495907414958737], [-0.016155875818603525, -0.02691207130300215, -0.03148997117807683, -0.05157777886226676], [-0.07103542084054573, 0.04126722799324711, -0.0026266273221364034, 0.04621802030681405], [-0.014850790047365215, -0.0015707151335829727, -0.01031494955807635, 0.011924266222695604], [0.020428102057582772, -0.026499238846579426, 0.02289466420005944, -0.011084358927788333], [-0.020886944617231618, 0.01212624754954427, 0.011306549202332337, -0.0016058247637406112], [-0.012651405652813606, 0.00980329054634798, 0.006844913286265156, 0.001158916852718779], [0.022760550015060856, -0.02571427782470454, 0.0008899644064186758, -0.007134855783948415], [-0.00535814930821219, -6.290188924147735e-05, 0.0001118365648874761, 0.015459283588627309], [-0.02249807860841829, -0.00016781264870135607, -0.018111338373846687, 0.03548983735050839], [-0.018139506751511863, 0.009290998253006505, 0.009221878729463982, -0.017996512568805367], [-0.012055073034277204, 0.007839623084341704, 0.014820425642847974, -0.0161270364350364], [-0.026301353390940186, -0.061320036392612874, 0.012013530299304374, -0.012628126128789073], [-0.043194015081440856, 0.010091478768757193, -0.030558369642991894, 0.04244757964177054], [-0.0072979969889186555, -0.00840102786827959, -0.031034505253678304, 0.010394704285791619], [0.008057182385522582, 0.0033260096121291655, 0.01341276823529476, -0.03480930498403262], [-0.008609508024951997, -0.0038964625652312557, -0.015399068064654332, 0.012454925892569335], [-0.0053331914300024175, 0.003259389969547006, 0.029342612623301075, -0.01819743861452278], [-0.030195898873409795, 0.012732114474247488, 0.017072611727456152, -0.01733396960904797], [-0.011428373161894096, 0.009751654835169083, 0.013605162045699214, -0.027980287998825255], [0.016749963383804575, -0.00454671192855863, 0.044811267667961, 0.007117853145701782], [0.0001997809535589718, -0.009412883055247496, 0.003934480028094595, -0.02477007762282218], [0.003720329926910489, 0.02430110725206901, -0.000981056659379503, -0.0010155855512444603], [0.07245120098204007, 0.09040089205063394, -0.04806908420481761, -0.017349419307122135], [-0.009719199179255364, 0.002973818113273829, -0.010939837704888529, 0.02865493861772798], [-0.020911975978459518, 0.014594069758067233, 0.021039885698938925, -0.023589314239975893], [0.008489700062676317, -0.026360337452960337, -0.00815895935439833, -0.03728129642447186], [-0.019320973388843365, -0.011252824049470811, -0.019017820483249244, 0.004472445365032503], [0.0010723130289389496, -0.0012669930920969953, 0.004246569279625045, 0.00735764517331148], [-0.02496754016518224, 0.013586476651692716, -0.0033819558520437132, 0.01196157811207409], [-0.011194700121404768, -0.01151817103068219, -0.017613468858267596, 0.01724982259995393], [0.00907184565200576, -0.009830118930194602, 0.0016511704365925624, 0.012393387131621966], [-0.0022434524942524883, 0.0015882197154393814, -0.0010535921610726016, 0.0007151664855568761], [0.016065571339149567, -0.00852360217979489, -0.011636599809690179, -0.009886398995543472], [0.02466946092338207, -0.031400437748772526, -0.017686213141821484, -0.014273045518035569], [0.011960391603372105, -0.006123068407870543, -0.011504259403276212, 0.01851046180416472], [-0.004312294784536618, 0.017862279702668182, 0.005149798208729763, 6.975834571649213e-06], [0.007456151851238487, -0.007760685262555514, -0.010237373874172116, -0.02330874251838669], [0.014631942044076503, 0.009627384582096228, -0.009707798709693625, -0.002716345423245234], [-0.026252573098381908, 0.016960006440026362, 0.018052130967725944, 0.014057279956542603], [-0.01964526944409972, 0.03912736061894989, 0.03139581126640311, -0.016251573811667083], [-0.011228244225250266, 0.001338908483738183, -0.0029428013340393566, 0.010869968159372457], [-0.01625325689256454, 0.017157698822499866, 0.024148182771060338, 0.0015820968232418736], [0.014222810084817804, -0.006833661331073967, -0.03088587703855632, 0.025880559201543443], [-0.0036760823823118152, -0.0032751685539123498, 0.02183289477394342, -0.028977976344648614], [-0.0026965211217111064, -0.0021245373172403253, -0.008564893335618355, 0.012083035605796748], [-0.0013708885085355605, -0.009640914625728364, 0.0058680900245067615, 0.021248038424845895], [0.004781603813711448, -0.027700009791925197, -0.04622304735985548, 0.03809219144708319], [0.007939794406068575, -0.01725827801230766, -0.014078783351456573, 0.024960404287464898], [0.06522469145296352, 0.060347249083982535, -0.03383071285159545, -0.025920119535676803], [-0.0380831907395375, 0.029220086420061377, -0.02004791799518204, 0.00938445110371654], [-0.009081246106593329, -0.009835579799998403, -0.014925361345232218, 0.033180743551860487], [-0.01850166552215309, 0.002184108814096367, -0.002060550623431679, -0.00564046971630433], [-0.010127105880938592, 0.023559056816448827, 0.01141654011780876, -0.009098724588858473], [0.010073459476436855, 0.014008174548679236, 0.01809978088531179, -0.03332532445276844], [0.020301969262499334, -0.023020649184729562, -0.012938109349674114, 0.009348980330680991], [0.04341774612396027, -0.07029883728689298, -0.035737266876481315, -0.05952441700952964], [-0.0024824472192693037, -0.012662104700621714, -0.033661601237278335, 0.021329708252888286], [0.007759613656949855, 0.02749303782337755, 0.012254120543146629, -0.027708943891010467], [0.00031537837557682095, -0.00952390764341334, 0.00465154897238612, 0.02592813755688869], [0.005759228049638537, 0.025605353621441476, 0.011496998988761288, -0.013667755461212669], [-0.0041973985370247794, -0.006549396895380105, -0.012695741040476258, 0.019507263924124874], [0.029487530131586566, 0.007271769592885599, -0.030604001974228145, -0.0004573631107154806], [-0.04046609831672501, 0.02448494846939141, -0.003517187261443352, 0.012254635700300087], [-0.008466433431897838, 0.006789593469378579, 0.002373198005204897, 0.010226918462588835], [0.007440196899347749, -0.02463848083559162, -0.00907933320071247, -0.020842490083777768], [-0.013923793227998254, 0.00038891005509134535, -0.011728508641453007, 0.02225501532568518], [-0.03132434424329389, -0.027890352466561553, -0.05563510613706879, -0.00444950367948842], [0.01968925139127943, -0.0053837079471627195, 0.006111337218409269, -0.0032962032018847135], [-0.015510865979405795, 0.014173244308859231, 0.007051503394935312, 0.005647930281671444], [-0.0030822237484079557, -0.0026177943210644638, -0.005587814394578473, 0.009649755617734714], [0.008806546777906942, -0.011967135097033052, -0.02039673610809987, 0.018065358358986747], [-0.016413092963882596, -0.057716842799396186, 0.019447740258297364, -0.03019291818755457], [0.008347374342111281, 0.03355347979884341, -0.0072499952160683, -0.01193133201982458], [-0.008691450870004693, -0.015499309450273975, -0.023854860925484073, 0.02577274918278794], [0.006549106222095882, -0.022276701145567103, 0.00961639988814801, 0.0316323952626663], [-0.0023589910323788994, 0.0010565511991871938, 0.0034722587888992304, -0.01114507877059645], [-0.001129992870992726, 0.01760112626783763, -0.03546222549455726, -0.04448350944617106], [0.001363311879999559, -0.007288698138285767, 0.0034044751856121607, -0.0002871315040127466], [-0.008776811904472454, 0.009673745842972965, 0.0006871353960177305, -0.004600493428467392], [-0.03693272845490871, 0.018745293558431533, 0.03010092134407359, -0.0227363106787525], [0.023180179876093186, 0.0008935484304533206, 0.045822904351500576, 0.026103338081387765], [-0.0027924610343685965, 0.0027086427409305646, 0.0052249618725052184, 0.00010166217618870103], [0.05308917019892333, 0.060544680293094254, -0.08085891703079348, 0.005092778957654398], [-0.006737475846860083, 0.015178418273563485, 0.020301544042856418, -0.018407386281385905], [-0.0013560291411197573, -0.009468482218120617, -0.01950083272069166, 0.008053745969167568], [0.014404340662498093, -0.002232563742209671, 0.022643271309971, -0.0007719713134258874], [0.002644540387770741, -0.015417169568038243, -0.0009735665551927642, -0.0050291527584274956], [-0.016082875191932848, 0.009753000644106669, 0.002271129747526664, 0.009780351439855731], [0.01245561304597074, 0.04637824593365106, 0.007248080371318866, -0.010851558459335579], [-0.020532096343669783, 0.01232783481278579, -0.0012830250268196783, 0.010940040727754565], [-0.02119866590456904, -0.006899069216130708, -0.005129201780569507, -0.027532864897646305], [0.005906561203011327, -0.021749867752605435, -0.018783338921459967, 0.010336907643545104], [-0.00012546370577061854, -0.013017433025425873, -0.0031172131849687883, -0.007968657156102866], [0.05450419834972113, 0.03557920332135165, -0.02456682531526339, -0.039542140001185944], [-0.003938417098868886, -0.009628295832931934, -0.010002738023986383, 0.025877720055684283], [-0.004126518029159523, 0.003925094087004888, 0.002030109077216108, 0.008005503120442906], [0.035838813633617427, -0.05884227755406059, -0.04516571708912007, -0.013050839191601065], [-0.003746964014962011, -0.0019062999024771635, 0.006442670718888141, 0.0060034927610853085], [-0.004376078081613464, -0.02400000571787967, -0.033112485365089275, -0.03250093659882688], [-0.007811336270188148, 0.00014405043676165018, 0.006979194621241144, -0.0012178979815124602], [0.006000903226586952, -0.028740014589149078, 0.03211997759165665, 0.03272570723579927], [0.015745460306587, -0.014372949440621133, -0.025231701251527114, 0.003186115367823856], [0.005183138398276186, -0.017329192064294615, -0.009723714782271594, -0.004348757671726011], [-0.03188401451344097, -0.05430398925482162, 0.02842895794218613, -0.02395760524585136], [-0.04289143499896356, 0.015342319465321178, -0.0003807999834677511, 0.01726475971892737], [-0.033005906482388, -0.05961547407234555, 0.02181677732829259, -0.02115196628355978], [0.02248292227039622, -0.01719727204561987, 0.015769360477326362, 0.01806339809488533], [-0.01889553851196807, 0.02843759791405688, 0.03551864852096635, -0.03803833299084387], [-0.012585151386025527, 0.009735484717712777, 0.01611116028668527, -0.006812599938106965], [0.005108388469136832, -0.018296126250176733, -0.0026119264101380256, 0.018325316478249403], [0.009000414923793302, -0.02253564103720416, -0.0062816692953724905, 0.018278544316473085], [0.011008185763328465, -0.003426715932874804, -0.014779600538432736, -0.003511449063774111], [-0.02545670509568457, 0.025658593940443796, 0.01619050801505118, -0.00437804149565567], [-0.004918886583473204, -0.005771736087227813, -0.002924737389222315, -0.0024462352246012614], [0.01016289093042032, -0.01625723560604504, -0.011613535492985496, -0.003248790561557218], [-0.00416364620162489, -0.018496786445824125, -0.003384621227190559, -0.014558028729311105], [-0.013845056367294077, -0.0006087326774076273, -0.003167847437002785, 0.013662264489448806], [-0.0067146284832863955, 0.006325993037076421, 0.01312734514499936, -0.01919958808394913], [-0.012025273268906931, 0.007133481820127589, 0.010825636153130994, 0.018352906006145243], [-0.0070626054483006635, 0.009435934790142137, 0.007554773208769531, -0.00047837281044614625], [-0.06337902651226296, 0.03243524967644046, -0.0052336274155424, 0.03877967716052064], [0.0699932796512295, 0.030140880171127652, -0.046081597055981714, 0.012701357527961024], [-0.008536934747531711, -0.0008158593313929946, -0.002640277992025775, -0.0037624573474589512], [-0.0007011916426374775, 0.003346344999180951, 0.018193635702634825, 0.021575400957045604], [0.02802899664773174, -0.03011974557402825, 0.00633796580132913, 0.01596688327004322], [0.07049808259396087, -0.009722677060830359, 0.037733909250633434, 0.0401064984188186], [0.026006525620457743, 0.029171645516338697, 0.08184328023307998, 0.020096740743243465], [0.05079666309714505, 0.09639268343966609, -0.03688589518834057, -0.00955838016458427], [0.0025618953800787153, -8.321100156493316e-05, 0.02108149050897385, -0.010843899787829488], [0.0038603136657255526, 0.0002220700478775688, -0.0295478143697743, 0.006099278823563661], [0.03636492242550362, -0.045316754751591914, 0.051885366991774484, 0.018235738065416514], [0.024388838713147572, -0.02385736035213718, -0.024120731506029294, -0.011396686040621043], [0.011585979913309204, -0.02665330383454394, -0.01253629537129256, 0.02679879079539918], [-0.007255799557760127, 0.0040607905181096315, 0.00621166543964205, 0.00620906632267025], [0.003799077489589836, 0.0025605939661646235, 0.029617752001922237, -0.008641596428081709], [0.0046168639067892744, -0.02273478834767255, -0.00620671943317943, -0.010395474543515967], [-0.017675598823454857, 0.0010307885866446657, 0.02247010651144204, -0.03925615852576398], [0.01587264222462794, 0.0036222585159326566, 0.004921910148941958, -0.006985283849718854], [0.01220940511455603, -0.023521158584050208, 0.008182147855482855, -0.03894296680513615], [-0.0385615668249072, 0.03933075508868468, 0.04033003548877006, -0.027157975981146724], [-0.00899225928952406, 0.0065411855246458135, 0.0028911254427451674, -0.0008639514524963821], [0.004142985884556731, -0.0329528123469482, -0.018151571258861285, 0.015137168382275695], [0.01507507696057188, 0.022085858025105223, -0.01919574747281423, -0.014830713583200724], [-0.004585574226623037, -0.0048020642421039645, -0.010615138783434652, 0.013851772159929209], [-0.004160503770505405, -0.026286444164301512, 0.012860362367232162, -0.055710297369981725], [0.002455432567452912, 0.023008111556986333, 0.007808456833674292, -0.01518304088655389], [0.022705782342620415, -0.03193426066757377, 0.0050626250931699755, 0.010572521391316638], [-0.02694592594097479, 0.0072945783899211235, -0.002302226126144359, 0.011198213535391672], [0.019395168927029263, -0.022170885528164215, -0.016829542729841804, 0.009632199457147916], [0.020569290876718525, -0.0008204206834760095, -0.008575468361238825, -0.012520626785490464], [-0.0007091136945384576, -0.010032843567757736, -0.007336792387744418, 0.02716871489480762], [-0.031375608607406055, 0.01599619326080821, 0.0017288397410855415, 0.00047600294761803444], [-0.009041325704619033, 0.00758181249156561, 0.02330365106036798, -0.010129343470499772], [0.006773479831076215, 0.018915227074358498, -0.01542326195692519, 0.0019561052460452155], [-0.007226427929986129, -0.008390825367143384, 0.0011975935230790998, 0.011214133125518508], [0.00031343324315067945, -0.024187590888616346, 0.011662369286283229, -0.020993993464097065], [-0.008554972392564406, -0.0037797010069045124, 0.00897784770019865, -0.01281687299186136], [0.014428128159916715, 0.01630482183217796, 0.045643682411726956, 0.013867074291378062], [-0.009657500388504003, -0.0540974508802828, 0.00493602952916762, 0.0065080303476702656], [-0.004127093635022674, -0.000326864577104294, -0.002298183550963934, -0.007180684112137337], [-0.002045635865142732, 0.006940316804792251, -0.0014622389169535207, 0.00022924552148033324], [-0.018451072947310552, 0.0046658289693680055, -0.005432206237843089, -0.0013566127574227939], [0.03452430776933083, 0.04655150700765659, -0.040866069889652676, 0.0363675250559566], [-0.017832978052394602, 0.012115819385804713, 0.01551221364319608, -0.007431845494589077], [-0.02085088571038779, -0.012968708307311415, -0.03303009621070141, 0.030000487422610703], [0.005974812942827533, 0.011723946402662245, -0.005498997653003059, -0.010068817735552155], [-0.008363844897345813, -0.029401445909446006, -0.016978658277081934, -0.02151300588073661], [0.0023420700674771397, -0.022220372622449802, -7.490737991872608e-05, 0.015565725507577819], [-0.006865289012150411, 0.01306974026714165, 0.015293861582443845, -0.008365495944594322], [0.0030765044088575805, -0.006621188748521774, 0.0030831337019664572, 0.008618747261222854], [-0.013567955928827174, 0.021188081983702974, 0.021970673908189815, -0.0075031282799279475], [0.10534028652360582, 0.05694742369446448, -0.049271277593941266, 0.015081980728459324], [0.012415009780361272, -0.011649868021577081, 0.019252996531257643, 0.0071602311045834525], [-0.028654436330909194, -0.02794750211539239, 0.026518028718942523, -0.019933321393866228], [0.008374025369596208, -0.007800240375844745, 0.005720500168274723, 0.009863404889379116], [0.016267433352599857, 0.03717806487768458, -0.0004839894869468798, -0.012059146710996792], [-0.013354323779481769, 0.017426501656295588, 0.002491229255369731, -0.0022815855929312987], [0.008852117463519365, -0.02810208933360625, -0.005013943310271976, -0.028960550497975943], [-0.001844519513293499, 0.012967879537797695, 0.0036626072390576543, -0.005151154202268568], [-0.004669422849052948, -0.012932791921319646, -0.015968507497620892, -0.05141744535634074], [-0.012502336298644477, 0.035527635592654955, -0.016697588884403335, 0.03126753321863002], [-0.005335318366866783, 0.000873110776718001, -0.0017386264503710192, 0.003780212558314963], [-0.028321397895885995, 0.01440600664502404, -0.0005099007413708157, 0.006531649355611667], [0.04242482711401927, 0.05300966654010872, -0.008894235558879063, -0.03826337715861929], [-0.004298660450196356, -0.018687060487636478, -0.025638493273897705, 0.004113973432379469], [0.012176094700364343, -0.040894054602053705, -0.008135080128682665, 0.005167686508373682], [0.04476011129856521, 0.00894236023748934, 0.07768553063684377, 0.06169413587716816], [0.008690676948956658, -0.01579991331796974, 0.003698508651629826, 0.013311356477704478], [0.018727309251609058, -0.032010784772472434, -0.008432538698613413, -0.021747792465284372], [0.0051063913092437956, -0.020775339894884615, -0.023078786678096996, 0.011819489484681252], [-0.004666109602130273, 0.00913472826059678, -0.02747900065399113, 0.014015391225799097], [0.008262567435032063, -0.029133890292637764, -0.013207575001208062, -0.01857438535346571], [0.08242910194203096, 0.063416930594923, -0.042131356358097886, -0.02183707016036731], [0.01094704918810599, 0.011618959901127171, 0.01688074749128954, -0.01181070440714362], [0.01725182344021529, -0.030645273916824804, -0.0074447926294632805, 0.005400675846278172], [0.002351621689564255, -0.010788967545695501, -0.005081526111400522, -0.0073557031809370664], [-0.0019533450909335285, 0.006906119822162333, 0.008880124703079636, -0.005142585017266183], [-0.008778527605084236, -0.00024691837676524, 0.006166233302350405, 0.0010998533356318502], [-0.020773887251836234, 0.0013912507878979085, -0.012573145594997106, 0.028136954682392853], [-0.008484968315299296, 0.024541797265022102, 0.04464614643295815, -0.0021952659068513133], [0.04622217530584403, 0.04003220883288415, -0.0330382716554695, -0.013187765123988346], [0.02176124887266502, -0.06066422312312194, -0.04667310686744808, -0.004920116996844683], [-0.007983333068440963, 0.006567911119226132, 0.0019342261518657657, -0.006510709899331019], [-0.0147117645912727, 0.0015847393793649786, 0.007718323069332804, -0.007409086873511682], [-0.009348743289453426, -0.011614169778990715, -0.006426597722068595, 0.01036895798281136], [0.0324897128195142, -0.02948046541375417, 0.014804561194727044, 0.009497490446180857], [-0.009005766835581307, -0.008660747705332346, -0.009251332553999472, 0.012983810217641882], [-0.0040857662485347945, -0.031118880093952705, 0.007931704159098345, -0.04571883129877019], [0.0026160498582754126, -0.004934616108177427, -7.282491111400913e-05, -0.013314115801887698], [-0.026629941608590925, 0.013153310917397602, -0.005144252770415518, 0.03394936299053695], [0.08380722186616456, 0.07612361418433851, -0.050928260800799846, -0.014325442852228625], [0.01600777492870331, -0.01780562337068193, -0.006306628180478221, 0.022562166350142958], [-0.01103641964811376, 0.005678618934576235, 0.016368243301815112, 0.006764586764230219], [-0.007059842947987358, 0.015800826057086104, 0.03870119919606755, 0.0038978748963217074], [0.023543813488232024, -0.02015486776956897, -0.046915284358546666, 0.03941855719330616], [-0.017585084910954462, 0.026592728653101267, 0.016178501790844915, -0.01135128346303377], [0.02548616751959245, -0.021774605636631084, 0.052912031281089456, 0.018874964872762735], [-0.0019457124338495464, -0.034861743894020136, -0.030880927151666567, -0.04019548153604032], [-0.011532481675970152, 0.018093738831870546, 0.019204502675053584, -0.0035260553597359686], [-0.010182207699547363, -0.013072751002682388, -0.01757267245558639, -0.00423047112289599], [-0.006812438369780511, 0.015652076343745096, 0.02139889287886068, 0.04410352507909871], [-0.03443264934938173, 0.013870148158799925, -0.01988135326257233, 0.03935800841268934], [0.022839562713415276, -0.038606042981511456, -0.014158074450504462, -0.03222496953865437], [-0.004114666342795074, -0.001018504927019108, 0.007497720355651761, 0.0027489561439726236], [-0.00785552358516911, -0.013840418581383058, -0.018705566814277083, 0.028793687457657115], [0.004430632348866208, -0.0034561640195271415, -0.010464855390701352, 0.015744346922366564], [-0.01863773085746547, 0.004482742821260407, -0.0011561519311857596, 0.004678572950384936], [0.003662053370944009, -0.012823007605355022, -0.020201107132009493, 0.029696225115514962], [0.013276970308296842, -0.018381011341338425, -0.0057146145181478725, -0.005126161171397512], [-0.004224885081105238, -0.016002759656745556, -0.014139596407743583, 0.010945910837484014], [-0.01353217830224991, -0.014318153458070646, -0.034274864007696484, 0.01651717227554507], [0.025088620770646414, -0.04519189020608357, 0.015779660668412243, -0.013713698224868415], [-0.004902767838829122, -0.033310784865933314, -0.004746797135278158, -0.04467963721588248], [-0.02514485420999524, 0.04395964546020699, -0.03690292119168969, -0.048515977385357185], [-0.014057145209734516, -0.0005528219946303429, -0.010745368196475452, 0.02129338551840128], [-0.002549137507828984, -0.009795068243481626, -0.015228396557556442, -0.030416789125631716], [-0.01879676059550979, 0.013941778917418065, -0.006114576332992656, 0.01751828510911237], [0.012596576423308078, -0.022405802260034545, -0.012931896907852614, 0.022338523743028204], [-0.029776198464530487, 0.031793787523068724, 0.032713217292290674, -0.02245932635375135], [0.01234292454353441, 0.0010004423445421288, -0.010161108744942745, 0.006335327872681864], [0.010248609249785321, -0.023611114607616335, -0.029656008612326385, 0.00020150431434217252], [0.041134546914127955, -0.0376258058726009, 0.05630362988658794, 0.011796498351478335], [0.008184940870969198, -0.018810774148254928, -0.036673504868048566, -0.002001835282755807], [0.014692771070244137, 0.02077156205486804, -0.0016109772934215102, 0.017881445647675038], [0.00936787938589905, -0.016366618057506433, -0.010889090483110793, 0.020325332927702975], [0.018046501999670415, -0.02140159146113397, -0.016702769099880894, 0.03434373004240426], [-0.000883215042328283, -0.00810048600639522, 0.0038543031084017445, -0.004743780531100361], [-0.003100412185979313, -0.01547521473254957, 0.00024813067089250594, -0.022894129184701198], [-0.012487547697659269, -0.0030811215375376893, -0.030231160632048164, 0.017544237807665588], [0.00015627394049922208, 0.0014667085880963279, 0.009255928889407605, -0.009618037356350608], [-0.0046131071708111135, -0.008378634052614218, -0.00931671465619216, -0.00661560112998653], [-0.013595768432749499, 0.005572898635179138, -0.0019313698585760235, 0.027620405338130937], [-0.00011813648255790895, -0.01393878922581189, -0.009301424627220053, -0.021992829430519], [-0.006392502648937954, 0.004722681796471824, 0.0020204038719096873, 0.00034488396295717064], [-0.0015756299927821005, 0.02524432822232082, 0.007290354454665292, -0.0017203393671229084], [0.00396115888178366, -0.005999712563762422, -0.0035293753381459435, -0.008231133225023727], [-0.010806324618728165, 0.004455446567409951, 0.01637453602876382, -0.007831611995948798], [-0.01778923224324973, 0.004455560011888488, 0.020875047201939733, -0.03218187390308903], [0.00617850448186934, -0.017523850375289265, -0.012529463729731018, -0.008521868267999215], [0.019851107796692004, -0.0030146770938718564, -0.025109165939554257, 0.004033810624993758], [-0.005615096079455081, -0.008100624026105473, 0.0194918436847383, -0.035262649452462415], [0.08383096889033545, 0.07506923381646068, -0.06793991821273376, -0.0005496728428843681], [-0.026986631777255386, 0.015787713869275497, 0.00025660107162478555, 0.01577068830992869], [-0.011414759542328491, 0.00392142143302403, 0.009750436053661446, 0.020928371001494556], [-0.007123124367758849, -0.029389106387811118, -0.02788483431185838, -0.025823804338416443], [-0.01886711998995368, 0.01057028621978119, 0.01794958205437996, -0.023139628374657262], [0.03178100247774362, -0.012025867448601351, -0.02079499195673151, -0.012502264323376368], [-0.018935903754740246, -0.021874919358651254, -0.02062494856179063, -0.013660269526146952], [0.010973878785927808, 0.026696715647433852, -0.020192891233464884, 0.0016052977715918697], [0.003351837860487314, -0.0035744835649266257, 0.021012432151966087, -0.0070091470987053385], [0.000474329379254596, -0.03066459678878684, -0.01871497529085047, -0.017430602992388564], [-0.0053303290035126944, -0.008701491305803086, -0.010734111947865796, -0.008230726323868145], [0.005230735156086475, -0.0011696533147988943, 0.0048286085572791255, -0.020564212764541904], [0.007149108569877259, -0.004584536862820924, 1.0449591819633413e-07, 0.0029097240658186477], [0.006906962940108864, -0.005474163739226403, 0.00013635299982460043, -0.0009308002483253242], [-0.012505687138021927, 0.007272495503828506, -0.030010927310098707, 0.046655138936591435], [-0.007203640863197049, -0.002691748536853702, -0.006852746864883063, 0.013510616576537984], [0.0361295334725076, 0.03242223036640894, -0.02499380985459277, -0.0013970768682499838], [-0.0047548298994977865, 0.008687692302470757, 0.004520723833817688, 0.01311764786634596], [0.012977352952785922, -0.015690131769870705, -0.01156550274664855, 0.023799407408294653], [-0.00317491245770838, -0.00464043644656873, -0.026273497861894608, 0.02284329210442665], [-0.030189594887048185, 0.0050538209351274795, -0.01701077151025386, 0.025162323580532067], [-0.018071043815945636, 0.009329217722284516, 0.020716821112582433, 0.004401057471905583], [0.03280139061015331, -0.021017783757480854, -0.004090137743924277, 0.00424019187985949], [0.0015161524430285756, 0.022532658293972392, 0.013017704473378447, -0.012865038435707367], [-0.023981710330885364, 0.014800125506744095, 0.0003910837984605618, 0.03557583981215502], [-0.0035599691615013952, 0.0001455912371463063, 0.002371451567946321, 0.02269489970964297], [-0.025642715831336964, 0.0062263236591744795, -0.008182577368207166, 0.028291782028299038], [-0.013709060704347065, -0.003178227508948798, -0.010055638094527603, 0.012780018765958655], [0.0002642437980578159, -0.0006556726915742449, -0.0007737377152148626, 0.0010842079495203695], [0.002979719456115412, -0.015546644958201229, -0.02885838554356717, 0.023956334628146305], [-0.016811342202226628, 0.009182429717212344, -0.005832983924795072, 0.008519337150783969], [0.005171373155568347, -0.012341866268403359, -0.008481226299456222, 0.024334445723681306], [0.0004511814445751546, -0.004318628730780865, -0.003125091101784391, 0.02672407673000516], [0.01022064301199046, -0.024173999859192632, -0.004691713749035173, 0.007494765686587857], [-0.014101880096251471, 0.024542820713365783, 0.019259780493015168, -0.0166894827249398], [-0.008604632594722803, 0.006422841476521295, -0.004435832748969376, 0.011054931791005118], [0.027728535107496552, 0.025587719390310706, 0.03623414954788449, -0.005150206221537093], [0.011261900908429063, -0.017263689310786024, 0.003553456022555738, -0.016264345934822847], [0.003261105282613712, -0.009884407150500428, -0.0015063441621764849, 0.025201221079534725], [0.005828468882815442, -0.01422663932935878, -0.023225016317034736, 0.02089440023619145], [-0.01401456522501983, -0.052509852959653665, 0.014438179894459606, 0.02119148489439373], [0.016156635519148213, -0.012955563389916701, 0.016668442501427527, -0.002401557036409952], [0.03635220742361302, -0.003997502848202922, 0.05383617163293972, 0.023337708780375218], [-0.030381285148500397, 0.025101796144125273, 0.009624305295851558, 0.012278828684182872], [0.009881768430371352, -0.02459804988261496, 0.018450792422742706, 0.008581973035529288], [0.03556918479577869, -0.0027177474391113015, 0.05684568377035522, 0.013331540468704887], [-0.03795009760951633, 0.017747201223404924, 0.0021611178730324724, 0.03933886901176571], [-0.008008645332104249, 0.0031501101154259082, 0.009472494851005958, -0.008352396283591516], [-0.00044997952752005903, -0.0007568280280117394, 0.026643511711926172, -0.003292759237069121], [-0.006850342134371331, 0.001796529485756736, 0.01241006826362389, -0.021114672027573826], [-0.021695461794925507, -0.0042083791316134215, -0.018536161623977716, -0.001853052260249589], [-8.798756636256553e-05, 0.007928946362916613, 0.005223437159227802, -0.00882476956594929], [0.0033141963197212414, -0.006508339895313364, 0.009323788516842011, 0.00953037836178911], [0.018417085513789205, -0.016332149842859963, 0.011263613157131386, 0.004426476053392632], [-0.018088607201926763, 0.0034442103589640625, -0.00913545712044439, 0.04132560298738193], [0.007883239323673998, -0.014200306220581825, -0.011605857469723481, -0.02222278382107336], [0.0017895585297731933, -0.006422487589714512, -0.01092102356971405, 0.011385895746299746], [0.013294813905888747, -0.013397309972641573, -0.0016090990420559738, -0.003494738857210945], [0.0018041907187033646, -0.007078356432981394, 0.007864402682133185, 0.004436951678499108], [-0.030385421200553004, 0.02683886067726346, 0.021266656644964237, 6.319018913182742e-05], [0.03536351689259726, -0.016829273260077077, 0.04667765593201751, 0.00749349077664612], [0.01842757840226901, -0.004721054648731612, -0.025933366222208078, 0.046492039848019195], [0.012463041544356545, 0.020112549166702264, -0.012133122831789687, 0.005195524124721061], [0.0013388366871910087, -0.014110973147701605, -0.005961352604443451, -0.00029830492818871404], [-0.001510883575283901, -0.027234065152837446, -0.04657165607383275, 0.006125098525799524], [0.002737943783893836, -0.007250074105123519, 1.8004854558641517e-05, 0.0005561296465297488], [0.00866765568349522, -0.022783080549678307, -0.006362424325611744, -0.02800237238732262], [0.0019137503091305778, -0.01566861263116909, -0.013297227625095945, 0.001861846627806315], [-0.037837159293104806, 0.012666798308440471, -0.02216403569343819, 0.039727971143070806], [0.0035603390243871907, 0.007200579384228591, 0.02249956542705869, -0.015148144404815184], [0.010391998000329184, -0.009702956428217238, 0.013763113724976725, 0.04231449275734882], [-0.0027411984426841526, 0.011350478841319069, -0.001075436499863119, -0.011410724854395192], [0.003638442089179999, -0.010635439966907691, 0.013051121039906717, -0.032842650848280926], [0.0018624826698535222, -0.012335933268505645, -0.006800957894812616, 0.01333607229927158], [0.008072695879275619, -0.01277241188090023, 0.021025112322002812, 0.010113468550149067], [-0.015009478329934326, 0.004105864596587769, 0.0005636654468494229, 0.034154343947024185], [-0.005989675396788943, 0.022226353319969316, 0.012736789873813105, -0.021720289672720747], [-0.004539393676955508, -0.006153910286714681, 0.0016887967405040429, -0.01016960535695737], [0.002813111111066653, -0.02447213271256156, -0.01999619101525512, -0.010541025840449107], [-0.003313387183786583, 0.013822231354043936, 0.02933805166340318, -0.010876058268547244], [-0.0071359815201236946, -0.0008736444886631156, 0.020631600036749884, 0.023376603415008742], [-0.0007695349603639562, 0.010621020454360763, 0.018116190872910484, -0.017009251737643456], [-0.021879967002625747, 0.015662503158605283, 0.005438244993008865, 0.03713975906059915], [-0.0062966078747098125, -0.017902462168039045, -0.0271409177587809, 0.03254714041993352], [0.00697835094642414, -0.0012195508991764189, 0.005302484111851843, -0.012553609658694915], [-0.003917830188403469, -0.015247310295070579, -0.03975212200247268, 0.02381217854826302], [-0.005197651143232138, -0.017104811807139114, -0.03301766692929797, 0.005796589074676792], [0.02516129487153526, 0.012784168574940158, 0.051767914171794716, 0.03857481390530259], [0.012091154205392174, -0.006419052107245598, 0.02086699496387584, -3.6558130969290905e-05], [-0.00638174141687057, -0.01055860982573695, -0.006884279054228419, -0.022483104814185924], [0.024118550359378616, -0.02082639600881258, 0.03741485937051727, 0.008155855895362756], [0.030967292356201645, -0.03317446530968607, 0.000621066589198558, 0.010166844754972586], [0.0009466563653428646, 0.0004580881513425628, 0.021991668534561207, 0.00640697858802648], [0.0045314108194358296, -0.014899623195261521, -0.0021012984041270688, -0.030844414372747108], [0.0011959910279356113, -0.03072437945512485, -0.0015014017591117139, -0.01379726854805605], [0.004292161031900155, 0.009799967090701639, 0.017322720528099713, -0.011981011583012784], [0.015379332983842982, -0.028143137017543098, -0.0026827906706568404, 0.02033392334174991], [0.039810432460791884, -0.041995211301098526, 0.06038087437918172, 0.02274601569695524], [0.008347721235961395, 0.007082331279043034, 0.002311587791437422, 0.02063382576198676], [-0.006386591182080867, -0.008196098477525367, -0.0016087718736543884, -0.0004985884048568707], [0.024313163130915628, -0.05098027999697173, 0.0658468338946936, 0.06467290647687574], [-0.008204823510199454, 0.007501910061051484, 0.021414376415430886, 0.01309810781061555], [0.012272597099631157, 0.009233160013301126, 0.005069099094607358, 0.009811629909176616], [-0.0036146309875560874, -0.005465098698940709, 0.0027821159130303856, -0.01100118180744265], [0.020908748236688816, 0.0005098963657892519, 0.004350859549954521, 0.007820049091030283], [-0.04698920953658194, 0.006310518035645336, -0.008277286549390419, 0.014111722567041228], [0.03199471089618987, -0.05112741577033553, -0.025908723316626404, -0.027880377014525403], [0.05210771784329084, 0.014099811679851356, 0.020055168363196364, 0.04552254155707298], [0.005482853168494367, -0.014246351581804883, -0.012152642766756734, -0.001569830233247802], [0.013044209148640396, -0.02720777512114871, -0.01550051606675726, -0.02515029145605012], [-0.016809730250020062, 0.014559918341441354, -0.01075762059670316, 0.02068532733677371], [0.007326705072456019, -0.027132884612590977, -0.013872813518714378, 0.00958276307068708], [-0.028627813516740402, 0.01795696846458229, 0.0007883254411815608, 0.02458437215242906], [-0.021135863784450638, 0.01935648273157189, 0.02414628846282238, -0.01788841153640951], [-0.007816044256545918, 0.004876775382516724, -0.0018939661788344518, 0.03029025365723219], [0.025496880988112265, 0.02680053285141786, -0.028900872962269238, -0.011512274888052633], [-0.004754380988002783, -0.007014409091959973, -0.009095816446248177, -0.0041347423131834465], [0.0012502365298409474, -0.012313801719673586, -0.009037032552195437, -0.006423530583854415], [0.016160208063909602, -0.02082927481698776, 0.021944987622645806, -0.02349264750044498], [-0.016578514539423668, 0.011697550439318602, 0.009618589756220512, -0.00715663112891015], [0.047012766713897966, -0.03450819891908623, 0.05486664328173235, -0.007378531572638983], [0.02432768874029663, -0.024355219403533572, 0.013712927538341179, 0.002717114652535734], [-0.0044122636366257925, 0.007783451221586725, 0.014738838129500931, -0.012805209517272731], [0.01044130691168033, -0.020368989797944742, -0.013908237465542846, -0.0007035271463494169], [0.005452727787320233, -0.021111686596613746, -0.01373309251255753, -0.006673134074320001], [-0.018215653878166097, 0.012251695191390645, 0.006522888778072537, 0.0012559089705465104], [0.017517711696532143, -0.044566378860664765, -0.020442499392511377, -0.047576202437221354], [-0.0018342409516420974, -0.0010444109180448309, 0.0016450347170666219, 0.0011443892253895614], [-0.01154666479094536, -0.005199768674674809, -0.01779498506323824, 0.01215396579789697], [0.01772717971681144, -0.01390572933973233, 0.03290943346109258, 0.04012341164062363], [-0.0012716124025487082, -0.020527781874619625, -0.013957506381773475, 0.023263700919435422], [0.008149056199737045, -0.011747924591037325, -0.04443300593135195, 0.03774426978923671], [0.04158604174985191, 0.02247980408909707, 0.05247634717099045, 0.058062248629291276], [-0.010684678987520792, -0.002170031283405156, 0.0064768054597272185, -0.02913142234863126], [0.013292881210185953, -0.003797903241774085, -0.014985125410787054, 0.008753459529651259], [0.003786388656941254, -0.0018456774991738628, -0.0067223847563262105, 0.011644299696643651], [0.0015865823238562814, -0.010469892383119144, 0.03316277353144398, -0.002882673780733135], [0.030326702581123004, -0.03441377090251036, -0.009637337250489552, -0.0009754428695277008], [0.00998563197093539, -0.01677868427190503, 0.006359153487381186, 0.02096298699022094], [-0.012275096699169204, -0.022803618406804806, -0.006773779747675144, 0.017705247544096185], [-0.025684978882135244, 0.011723144305800078, -0.00013620109845554083, 0.015862184821088008], [0.009858487394635459, -0.0036162575213080444, -0.00988593564712249, 0.022679820633292987], [0.05192281796200795, -0.0022814598077495816, 0.03954030379504494, 0.09183430756870666], [-0.0273619505369206, -0.006688346624741109, -0.04199484273906406, 0.05343171244337156], [-0.008138418680664956, 0.006516169855182877, 0.0197881913018389, -0.013542397423862892], [0.031808448707690395, -0.017268636104621485, -0.006132773524373327, -0.011577508337237023], [-0.03899442418680864, 0.034742219957188125, 0.028075019937530695, 0.0004063599168596856], [0.0037320042954623422, -0.0065990888478446325, -0.009264874772806275, 0.020942579247636657], [0.011363576228686383, -0.009851873110550635, 0.01765400012472795, 0.00853889446933475], [0.039257929847209404, -0.02190986691862491, 0.04952532836031477, 0.03461045358756959], [-0.01145411991486085, 0.003701540886278833, 0.009946486296873324, -0.014703386988894014], [-0.033311021608222656, 0.02128021594160366, -0.0083210640919608, 0.026191481419208764], [0.006938434065760669, -0.022572120250209434, -0.013362149560209237, 0.02684461601831147], [-0.0026044839484382592, 0.008630359209807795, 0.015351102288686544, -0.006329461004308027], [0.018098966740767372, -0.011572898623475573, 0.01975815591999153, -0.0017417450368029657], [0.005798685336324121, 0.0068632573749219505, -0.010486155286155827, -0.0034925345043032505], [-0.013044353162805972, 0.007978284603733564, 0.009919134079131222, 0.01744800615086653], [-0.018783815212574922, 0.0032659364832956844, -0.016596388266384928, 0.018084049620851982], [0.013602169181365037, 0.017188682573201566, -0.016078008328781042, -0.00413635044504034], [0.026659610855142183, 0.006071074601386252, -0.008015407555245595, 0.021576437903756244], [0.01258225710693103, -0.0052456843921151654, -0.020028247450018435, -0.002388263065767584], [-0.032682772204215976, 0.007054321966686015, -0.018462256580461387, 0.01368995220662737], [-0.013367309809468287, -0.01768759799179179, -0.03421264760395583, 0.019501792603121224], [0.0012662483145926948, -0.005567701571163627, -0.014062237992803515, -0.0007677542372159452], [0.019441739305800718, -0.019548213431348143, -0.022591236222486048, 0.008163779905595797], [0.0076184885678848915, -0.037007007565441945, -0.0032619542878739426, 0.01701798219055363], [-0.0033753288652848823, -0.0074494031892668134, -0.014952463570260411, 0.01746055612608936], [-0.024667084917613987, 0.009822314495497095, -0.013524607812596774, 0.033026291606120105], [-0.005958640026818922, -0.006839735518517399, -0.013013985278900618, 0.013817319728000137], [-0.020184974377613192, -0.011818333826455705, -0.02729598604830706, -0.0005751244409434287], [0.0037150143840898645, -0.010014784760361484, -0.0068764041927191774, -0.00653142315566354], [0.007185575689467372, -0.02572518673005551, -0.027854778196352844, 0.010484637143709317], [-0.008325754283908388, 0.0019077930294719816, 0.00231087229770611, 0.013859233250072558], [-0.007979287518808257, -0.0047890578460910195, -0.013187479583508351, 0.011720411447924952], [0.012634086476073456, 0.024128241596665455, -0.007342292967677053, 0.0010566367975277592], [0.006105909621559156, -0.00015716082560195276, 0.015202064825714465, 0.013992818479755554], [0.0073878551012698255, -0.022899566696587242, -0.03348670080186273, 0.027825957346417858], [-0.03964874247219721, 0.026002727344132323, 0.017770644327866156, 0.0186650615269494], [0.012055384166252153, -0.022778436489874553, -0.016354118478638262, 0.005684900371515279], [0.002302287480194057, 0.0072323063961920305, -0.002110330470794739, 0.004261822632037035], [-0.006482037446247955, 0.009013110682555626, 0.02363829049920796, 0.021637151048955364], [-0.014332044642648409, -0.006502640337446527, -0.008508202552584228, 0.01870208608739632], [-0.041544677057063016, 0.0022804568169047844, -0.01584737515156817, 0.0078823597100738], [-0.013553976178894929, 0.006553312395386062, 0.012102598711128098, -0.014920467684058343], [0.010899884293769436, -0.009959380936789369, -0.01919239745773313, -0.009746967415773005], [0.006240732215308545, -0.006343252819813779, 0.01626109210289344, -0.00843966692163036], [0.0033743537427857796, 0.02538204797179619, 0.010355849640814046, -0.010992496216732171], [0.0014562862895732755, 0.005103357428992571, 0.00395986836939857, -0.007312187149412543], [0.023981003286918583, -0.010024349170241809, -0.001211677508189755, -0.008392156900914554], [-0.008803357547716639, -0.0005598079684884221, 0.011474153055734961, -0.0015526122264097018], [0.01809075863664352, -0.01905653895766354, -0.03944322000740785, 0.00026840227722718294], [-0.002164092557137658, -0.008329642401442145, -0.0008982087994551838, 0.02285977588454693], [-0.015560641675479932, -0.00730961483193238, -0.014155639415724017, 0.015589900606608373], [0.03443181769042174, -0.012007555035542747, 0.007055132045003334, -0.03617891335878583], [-0.034337490911408634, 0.019585050113245586, 0.019327221047821423, -0.004647283590683159], [0.012005983336500256, 0.01386073941029404, -0.010359450462201249, 0.014099678631073063], [-0.03833051441694277, -0.022335649089212723, -0.0566271053560083, 0.00391205488215716], [0.03897055465774261, -0.0032485851583927148, 0.05358505318550197, 0.045074408300699066], [0.0386808595311116, -0.03539593051248782, 0.049404357318196215, -0.01915063787830595], [-0.005089117744050777, 0.021676235762982315, 0.04077481301104321, -7.965598845591205e-05], [-0.04340760443119169, 0.008388215041725511, -0.03263538868815846, 0.0447120965664019], [-0.03647838886222089, 0.012410879048996067, -0.0130941402995756, 0.02708522988955393], [-0.04055794408015348, 0.030514426966604127, 0.02529987798358101, -0.0015921392394132716], [0.0153584643251915, -0.01255123391326621, 0.021252369107554375, 0.009800909269434173], [0.00667088415415562, -0.0038286379633858214, 0.0026095991016612443, -0.004855758165440016], [-0.019217337399335257, 0.0046509682928378105, -0.02056206068636022, 0.05107585178992719], [-0.003040359439627757, 0.013230259352074569, 0.014229376844529972, -0.0247907192082161], [-0.009161839237411793, 0.0006526355072895069, -0.003603114441096335, 0.017662577434043453], [0.02222673251561379, -0.029104172651139838, 0.026688528686111622, -0.021093484819592456], [0.005794423982272728, -0.009605763142209412, 0.004283645126954912, 0.007779553498595616], [0.01922975716427316, -0.04274085632276733, -0.02777163038889946, 0.021526900600224774], [-0.00220384642477475, -0.013149952656169852, -0.012823052528129802, 0.003779064511364105], [-0.0240339071192393, 0.02674764179136556, 0.017512131891686083, 0.020010469055761114], [0.0039365340927737524, -0.003118600458553744, 0.0037508150729440586, -0.017222416661179664], [-0.002422561687206241, -0.016066153256127494, -0.011966552011704917, 0.00819340918654568], [0.009742959157580201, -0.001886348097970238, -0.014754311633146965, 0.0029666948264900576], [-0.02059580464896888, 0.009469880181940319, -0.004849303184793492, 0.005702398206387978], [0.0012966402118996846, 0.002381750810749942, 0.003311242310825018, -0.006834120495241525], [-0.009805499986367618, -0.0024484379478265316, -0.006713010702189913, -0.011029764069245636], [0.0022529353795380184, 0.006302342889625399, 0.02267219400881217, -0.028438393993501673], [-0.008189906983928233, 0.009778401093666598, 0.015062292712288173, -0.016854961110594365], [0.007326535438925192, 0.02850360844350726, -0.00453326862747287, 0.0006536989082006834], [0.018217345410935035, 0.008184699787126593, -0.0011309209061703739, 0.033445212513044005], [0.01589064056329725, -0.023139297856015754, -0.004790367059583022, -0.052632013038393106], [0.016635896431861, -0.02527419263157384, -0.012032324624358668, -0.013324108272750261], [-0.03003353923685343, -0.027319746428429947, -0.0021723442935979538, -0.01827799860067677], [0.0025237305719833223, -0.020125711738748532, -0.024230631617343, 0.017105968705477776], [0.02617278968784669, -0.025968944698033306, 0.01663900599525875, 0.023567287042428952], [0.016076359705783517, -0.019419166062825743, -0.0004383106514522302, -0.031704527494908], [-0.00837312756307948, -0.01733450642699124, -0.03458763057292369, 0.003099257076034302], [-0.006013404256911322, 0.0024182505347636, 0.004045088887229629, -0.0177201677146259], [-0.008865296101584447, -0.009911557949763297, -0.0008776289138941792, -0.06708664898667133], [-0.007939429199212394, 0.00030198177276411344, -0.0017438686990840098, 0.0037336299266009206], [-0.0034458007326088045, -0.0034570145257800163, -0.015038854601288796, 0.0028555614343753247], [-0.0009740097561799527, 0.0034046175729544803, 0.007498958279193311, -0.023655372820304683], [0.015980026925961805, -0.0055318371287261655, -0.015551029255769868, -0.002365609968795994], [-0.0025817194818216617, -0.005965901596961549, -0.017556951940764023, 0.0245731222313924], [-0.004993869153597083, 0.0046178192969595164, 0.041636005787885504, -0.033006187243872394], [0.019484564536846136, -0.01807583214837157, 0.008224726381535444, 0.006977551181152913], [0.0003407005598677436, -0.009670819210258835, -0.01441211126246069, 0.02955581133082084], [-0.005130785872332515, 0.014209289206490573, 0.009542820219087441, -0.016104672366275833], [0.001243696046784217, 0.0027104385917642204, 0.02013119455530208, -0.01922335233175258], [-0.015030869562099949, 0.01784345999436695, 0.018508331894231247, -0.018961683649764065], [-0.0026806529013671384, -0.005751939571504896, -0.012292015417942996, 0.0018143515186917864], [-0.006824380079104019, -0.010547768794452524, -0.023675550459211443, 0.012350280265728536], [0.014054811782530607, -0.0019734501739239827, 0.0008424502741765847, -0.02506319004689117], [0.0021602286288514715, 0.01787394381319977, -0.0004384505837189252, -0.012569245454115191], [0.011121458559627189, -0.006475809400111821, 0.024587147372509888, 0.0064893751270944395], [-0.007836280101609786, 0.010100595319864823, 0.004117019828713303, 0.007671477468200757], [0.009739001367739853, 0.009504412237521406, 0.002878781495133196, -0.02013803525094664], [0.03026361387049749, -0.02140365205728858, 0.0016837591821369667, 0.010108479779809897], [-0.005081610660803391, 0.011812622064194757, 0.009700811787993981, -0.012886956903112447], [-0.020747913766011674, -0.0068557539161235624, 0.002262657198026073, -0.01862891303099767], [0.02357823662439039, 0.014586469151165429, -0.01742634979823009, 0.012707877873040075], [-0.000715103469918269, -0.003145324222467767, -0.009013849044288454, 0.011898421506730738], [0.0003137558405674826, -0.024380202304764946, -0.035800267356041006, 0.030156328023158308], 